1522 128
HP:0001250 0.043456763 0.042340215 -0.1080043 0.071211666 -0.050021335 0.016606515 0.015988706 0.003130905 -0.008603298 -0.0053917514 0.06783232 -0.063873425 0.056800377 -0.029211715 0.048844755 -0.029078793 0.049260415 -0.059955344 -0.081836484 0.049317256 0.014276497 0.07179104 0.08916182 -0.03527774 -0.020217698 -0.11566904 0.07713617 -0.062359475 -0.12130291 -0.037535567 -0.018898088 0.076754674 0.054506347 0.014882707 0.023364348 -0.070849724 0.06591144 0.027912969 -0.07699158 0.008544857 0.021299072 0.03580273 -0.017739195 -0.01259779 -0.0028269542 -0.0084155565 -0.002301127 -0.01843384 -0.0446368 -0.023198023 0.008192451 0.07848573 0.11993601 0.057555474 -0.041238263 0.102692515 -0.031610563 0.08880615 -0.0013351076 -0.13338794 0.019806933 0.045315087 -0.06534064 0.029794374 0.07809343 -0.01571113 0.0043020216 -0.022500131 0.019558618 0.09165799 0.12538718 0.08647244 -0.06912749 -0.06722003 -0.029812327 -0.17011899 -0.0310168 -0.01602682 0.07991316 -0.04093533 -0.031520966 0.089304775 -0.03600835 -0.016871883 0.023052646 -0.007930045 0.018804492 0.026548289 -0.0015404213 -0.058717288 0.023528641 -0.027259642 0.0021988275 0.02639014 -0.019559098 -0.0031775925 0.10526547 0.05060256 -0.09232946 0.049246136 -0.05910226 0.048878547 0.040876865 0.07557867 0.04728377 -0.009748283 0.08181487 -0.009515788 -0.0044678417 -0.0028727376 -0.0015544393 -0.08327319 -0.101342626 -0.0074285 -0.04350705 -0.049929574 -0.10871503 0.034919173 0.019558007 0.01553351 0.059688494 -0.0020070525 -0.036918204 -0.006879779 -0.018646855 -0.018562397 0.049003903 0.043726545
HP:0000365 0.03763228 0.03760574 -0.10125169 0.06402253 -0.045490302 0.020449886 0.015301206 0.004815471 -0.007106789 -0.00034558494 0.06758114 -0.05774535 0.06020177 -0.024405554 0.047000457 -0.032636397 0.052462008 -0.055008873 -0.07647563 0.051429905 0.015019778 0.07342207 0.083797656 -0.03478543 -0.018980626 -0.11049548 0.073269315 -0.059881967 -0.12018781 -0.041546937 -0.020360615 0.07604899 0.05371983 0.015138816 0.021622485 -0.068216294 0.065131254 0.030939974 -0.07016484 0.0048129577 0.019449012 0.0394161 -0.014529497 -0.016032804 -0.0029440357 -0.007998538 -0.004590233 -0.021746892 -0.04508748 -0.029449817 0.0033244968 0.072788715 0.1144156 0.050825372 -0.03946087 0.097469695 -0.029698893 0.08326378 -0.0028180357 -0.13563561 0.022738501 0.04646482 -0.05836132 0.027667483 0.07045558 -0.02130506 0.0011977018 -0.02082882 0.024288116 0.08754922 0.12210622 0.08829577 -0.06847228 -0.06435553 -0.030853009 -0.16499354 -0.029187776 -0.014132323 0.0787156 -0.042172704 -0.03218572 0.09165162 -0.039949678 -0.017509157 0.015902115 -0.0014353975 0.01720659 0.020800427 -0.0010180629 -0.057992537 0.018941263 -0.033811055 -0.0004270539 0.018721562 -0.023597158 0.00085867086 0.10513586 0.046308253 -0.08838748 0.053605862 -0.05327887 0.05140813 0.04133262 0.068377376 0.044627927 -0.007198041 0.07429605 -0.00269476 -0.004536157 -0.00049830315 -0.0034689237 -0.0766997 -0.095790625 -0.0023406483 -0.043120503 -0.047709074 -0.1116969 0.030398 0.022126362 0.012186231 0.057049464 -0.0026922498 -0.03863932 -0.004371505 -0.012765927 -0.017347539 0.045444693 0.041038115
HP:0012531 0.039204128 0.037011433 -0.10240994 0.06676136 -0.0470468 0.017012557 0.009882174 0.0024156182 -0.007878188 -0.003447937 0.06716709 -0.05726852 0.05741242 -0.026678871 0.04099335 -0.031288426 0.051434193 -0.05446311 -0.07482275 0.05048295 0.015950609 0.07392294 0.089053586 -0.029892957 -0.014539864 -0.11341712 0.07220184 -0.059835162 -0.116689004 -0.033661213 -0.021808142 0.07530499 0.05109395 0.019481163 0.024641402 -0.06836503 0.061657958 0.02800611 -0.0708077 0.008254526 0.022812491 0.038477547 -0.012466144 -0.015219553 0.0020932485 -0.009889391 -0.0046742987 -0.019549605 -0.045581125 -0.024820535 0.0059096194 0.07383458 0.119545616 0.054306313 -0.04445036 0.09366154 -0.025020095 0.08478675 0.0012253594 -0.13344285 0.021288298 0.046106882 -0.057364196 0.03199097 0.071561806 -0.022474302 0.0029892442 -0.023410026 0.025022179 0.08919148 0.121565014 0.08422032 -0.067083284 -0.06428641 -0.031968135 -0.16320255 -0.033329424 -0.01791655 0.07246984 -0.041421443 -0.03139289 0.08882129 -0.033984963 -0.01920294 0.02104639 -0.0018246763 0.020507146 0.02064544 -0.0022478958 -0.06065364 0.01988147 -0.027929634 0.00492465 0.018699575 -0.022909416 -0.0014840178 0.0995663 0.04633238 -0.083357364 0.050444975 -0.052275397 0.04848245 0.03876635 0.07312398 0.044774167 -0.009558532 0.07593893 -0.005104171 -0.0044796993 0.0020029752 -0.0044353516 -0.07622018 -0.09718472 -0.0058539533 -0.04578488 -0.04221019 -0.10872729 0.033339188 0.022042248 0.014915589 0.05585314 -0.0034653419 -0.03686737 -0.004875736 -0.014834874 -0.01716405 0.048846237 0.04647854
HP:0004322 0.03887145 0.034532323 -0.102501035 0.0662334 -0.044892695 0.016994096 0.01168359 0.0016029335 -0.0042107427 -0.00295329 0.06650759 -0.05878671 0.058236197 -0.02330284 0.044404775 -0.029960101 0.04500388 -0.055574797 -0.07170693 0.046177723 0.011445993 0.06767036 0.08225104 -0.032251474 -0.013252079 -0.10605542 0.07301151 -0.05415841 -0.11569745 -0.04013429 -0.019457117 0.06946374 0.055097785 0.018955538 0.022362432 -0.06816201 0.063640304 0.028598126 -0.06767951 0.0048514744 0.021547716 0.03310842 -0.012805453 -0.013292132 0.0027761846 -0.0077409195 -0.009658828 -0.020499272 -0.04362408 -0.02601025 0.0036427309 0.07009129 0.11111271 0.05467708 -0.037303742 0.09301501 -0.029675184 0.086393945 0.00298389 -0.12996165 0.025056265 0.043831587 -0.058240306 0.028787736 0.06825508 -0.014008748 0.004440848 -0.02002498 0.023636062 0.085603386 0.11846349 0.08338573 -0.06837921 -0.058696143 -0.028455181 -0.15670012 -0.02923676 -0.015657667 0.07616804 -0.03626737 -0.035329286 0.08821255 -0.037118286 -0.021484617 0.015551438 -0.0022559292 0.017177036 0.023296513 -0.0032272863 -0.05768769 0.018732488 -0.031831708 0.0015989047 0.022415305 -0.01631834 0.0019848112 0.102071285 0.044579223 -0.08843016 0.05063314 -0.05719914 0.04573814 0.037080895 0.07062405 0.044099733 -0.006684885 0.07198038 -0.0044647143 0.002379684 0.0006611539 -0.006196971 -0.07824463 -0.093728825 0.00045307848 -0.045183137 -0.04558366 -0.106447294 0.03338527 0.024412796 0.013708138 0.055710528 0.0018672338 -0.035947453 -0.008476646 -0.012580785 -0.017880436 0.04791407 0.04500605
HP:0000486 0.03488801 0.0386829 -0.095307656 0.06361721 -0.04668892 0.015548378 0.0103748385 0.0026222032 -0.008680127 -0.0019230462 0.06108218 -0.058701217 0.052626878 -0.026327383 0.039321553 -0.02820817 0.04526949 -0.055665065 -0.07082012 0.048679803 0.009255029 0.06587217 0.083898015 -0.032813992 -0.01806385 -0.11028116 0.067516185 -0.05497754 -0.11391306 -0.034910325 -0.020761613 0.06811517 0.048587427 0.01755972 0.020867683 -0.061407585 0.058793657 0.029867988 -0.07005295 0.0065386733 0.020501241 0.038274527 -0.015388552 -0.013083868 0.0008734598 -0.0040624524 -0.007122082 -0.018019436 -0.04030958 -0.024683986 0.0056721102 0.072070986 0.11139116 0.05156014 -0.036472406 0.08869043 -0.024845585 0.08023046 0.00017659791 -0.12323218 0.021401392 0.04341681 -0.059798673 0.029393034 0.069777116 -0.015393169 -0.0002218405 -0.017694015 0.0175536 0.081018865 0.11131276 0.07885653 -0.06603891 -0.061821718 -0.02388127 -0.15792306 -0.028765596 -0.012301709 0.067720145 -0.039957836 -0.03272543 0.08584493 -0.0328949 -0.017918672 0.016267737 -0.002583162 0.020399416 0.024543947 -0.0014920331 -0.057676416 0.021734005 -0.028865531 -0.0030641607 0.01962887 -0.017208762 0.0030240307 0.09181868 0.045115333 -0.08352806 0.047501765 -0.056439724 0.04480815 0.03367701 0.0680687 0.044935122 -0.004806378 0.070381954 -0.0020199532 0.00046845866 0.002408192 0.0005289989 -0.07710752 -0.08920414 -0.0033133458 -0.045689464 -0.044846393 -0.09921825 0.032922223 0.02067712 0.00986285 0.053045664 0.004169723 -0.03802714 -0.0076767504 -0.013377178 -0.014496433 0.04303905 0.043038223
HP:0012378 0.040467095 0.043837395 -0.10675923 0.072413206 -0.051436502 0.021956524 0.014978371 0.0021380805 -0.0018868427 -0.002552609 0.07470158 -0.06442058 0.06442187 -0.029332582 0.048512623 -0.03441932 0.05458683 -0.063780606 -0.08159325 0.04961288 0.014733463 0.073527135 0.088034004 -0.037951592 -0.02025606 -0.116481766 0.07356792 -0.06156933 -0.12459155 -0.03721913 -0.022538003 0.078039676 0.05827216 0.018849455 0.026727142 -0.07150136 0.06617641 0.029201891 -0.076220736 0.009439073 0.017514389 0.039509904 -0.01319681 -0.017242948 0.0036151514 -0.00430784 -0.0053748796 -0.018379059 -0.04859806 -0.029329892 0.0069614146 0.07857751 0.12225214 0.059856337 -0.04327628 0.09735537 -0.02840912 0.089722455 0.0009744796 -0.13552901 0.020999564 0.048732057 -0.059675667 0.03016534 0.07707093 -0.015464669 0.0025560786 -0.022135854 0.01966093 0.09821113 0.123553686 0.08842684 -0.07576224 -0.06715454 -0.03391908 -0.1692813 -0.033086643 -0.011185035 0.07462665 -0.04095189 -0.037778 0.09618975 -0.036278434 -0.021387577 0.023981428 -0.0060649468 0.018831348 0.021920763 -0.0007882475 -0.06529304 0.026212957 -0.031193426 -0.00046164275 0.02589756 -0.022103712 -0.0039946977 0.10566396 0.04883428 -0.09227517 0.048966993 -0.06154309 0.053336963 0.037498508 0.076552756 0.04952654 -0.013010954 0.08259984 -0.0057014246 2.7382559e-05 -0.0032697758 -0.0019665842 -0.08446876 -0.10195834 -0.0048655253 -0.049013402 -0.043930124 -0.1101842 0.038818408 0.025273828 0.01820892 0.06268152 -0.0007421451 -0.03817481 -0.008846457 -0.015920956 -0.021866284 0.045013286 0.04432271
HP:0000252 0.028085802 0.029554084 -0.07826385 0.055998962 -0.037398446 0.0116181495 0.007466925 0.0029179694 -0.003716017 -0.0010540885 0.054907195 -0.046896793 0.04509974 -0.023903068 0.032556575 -0.021937383 0.036535814 -0.043815836 -0.06229553 0.04206252 0.008766135 0.05573862 0.06655296 -0.025930472 -0.011130091 -0.08798162 0.052556396 -0.044178862 -0.087342456 -0.029591922 -0.015784767 0.0594067 0.039413586 0.013791959 0.017050792 -0.05283523 0.051619515 0.024441862 -0.05654044 0.004119002 0.018738275 0.029330902 -0.012048305 -0.014627263 -0.0020492845 -0.0072783744 -0.002973272 -0.013820257 -0.039751038 -0.02009192 0.0060111773 0.06084404 0.091499954 0.042266924 -0.029986335 0.07262925 -0.02346127 0.06651793 0.0023977677 -0.099818796 0.021090869 0.035105355 -0.04703726 0.025498819 0.059686724 -0.01344053 0.005059298 -0.018086517 0.017993256 0.07129118 0.091627106 0.06405366 -0.05171929 -0.048423722 -0.02439089 -0.12762713 -0.024906363 -0.01098815 0.061390072 -0.031875003 -0.021899793 0.06827629 -0.030925341 -0.013073354 0.01843606 -0.00018473528 0.014964147 0.018028425 0.00097461295 -0.04685816 0.021122873 -0.02261423 0.0039126244 0.01657302 -0.0125490455 0.0019522517 0.07896331 0.03742046 -0.07047227 0.040760793 -0.047412604 0.041119006 0.029814817 0.058572363 0.036611173 -0.008016218 0.063781515 -0.0055329027 0.0012460499 -0.0017116538 0.0007882801 -0.061630458 -0.077732846 -0.0051316344 -0.033774666 -0.03811921 -0.08563272 0.024061382 0.017262872 0.010538055 0.044714585 0.0024438773 -0.032947984 -0.00948556 -0.011670801 -0.014419321 0.033496406 0.035770617
HP:0002013 0.037791125 0.03635447 -0.087267965 0.06037112 -0.04401419 0.01882181 0.010899593 0.0065801484 -0.00586255 -0.0020577714 0.056055892 -0.049616937 0.050428912 -0.019773098 0.03897129 -0.02933468 0.04618784 -0.04978677 -0.06790674 0.041633245 0.009356819 0.058885086 0.07805483 -0.032081537 -0.017391289 -0.098914005 0.060247242 -0.05493536 -0.10673993 -0.029379962 -0.01352765 0.062236924 0.04768124 0.016538806 0.020148814 -0.060896832 0.05857757 0.025650017 -0.061749555 0.0052020135 0.018404631 0.030137898 -0.010192528 -0.015056211 -0.0037016852 -0.0018500146 -0.0042786584 -0.020439977 -0.04411083 -0.025335222 0.0034670597 0.06541857 0.104706496 0.05134411 -0.03462515 0.0862818 -0.027708955 0.07454565 0.0036167665 -0.11947073 0.020619424 0.041440684 -0.05405085 0.028036434 0.061432697 -0.017498435 -0.0008821705 -0.018007433 0.018775083 0.082828306 0.10105047 0.07500316 -0.061959352 -0.057147108 -0.026847593 -0.1446095 -0.02954265 -0.009450992 0.06966613 -0.033910826 -0.028555794 0.08188486 -0.03240773 -0.014646092 0.02004636 -0.0005486271 0.021080883 0.022896444 -0.0034828049 -0.052732978 0.022460971 -0.02941953 -0.0028849477 0.020432001 -0.020154318 0.0011108153 0.09317707 0.038662527 -0.079953074 0.045526143 -0.05222618 0.04369333 0.037354108 0.06639872 0.04454796 -0.0063666916 0.06697211 -0.007230823 -0.0034159156 -0.0016467638 0.0010914039 -0.07364637 -0.08603607 -0.0018855237 -0.039617006 -0.03930191 -0.0942305 0.030031508 0.020804841 0.015728623 0.046408553 -0.001523045 -0.03783736 -0.007957568 -0.01721496 -0.015539893 0.03826075 0.035096265
HP:0002910 0.037996434 0.041449994 -0.102660045 0.06878811 -0.0494757 0.018311573 0.013698726 0.007274595 -0.0025724382 -0.004783218 0.07218803 -0.059654653 0.05775772 -0.028014777 0.042461894 -0.03037168 0.04977079 -0.05632406 -0.078792095 0.05011364 0.016491586 0.07380939 0.08890789 -0.031789772 -0.020516735 -0.11434729 0.070639946 -0.063745104 -0.11577488 -0.037257288 -0.015972232 0.07039649 0.054423578 0.017211283 0.028943755 -0.07297443 0.064727575 0.03238047 -0.07109348 0.009496648 0.022831276 0.03633978 -0.014385521 -0.013553838 -0.0029164234 -0.009930318 -0.007709091 -0.02199017 -0.04999216 -0.025222203 0.005126191 0.0705149 0.1189774 0.057310168 -0.04285337 0.096622236 -0.026503485 0.08446252 0.0020443352 -0.13168053 0.022767173 0.046129562 -0.06087341 0.030686824 0.07179272 -0.021052457 0.0046996605 -0.020903688 0.022978535 0.093382135 0.120998725 0.08545665 -0.074042104 -0.06434159 -0.030350875 -0.16586763 -0.031408466 -0.015310934 0.07368987 -0.043245688 -0.03562287 0.091230564 -0.036164757 -0.018929718 0.017223142 -0.0054661827 0.022740047 0.028668815 -0.0026341765 -0.057230417 0.026187968 -0.027295442 0.003937933 0.021175222 -0.017448377 0.0004729246 0.09925632 0.0452753 -0.08391608 0.04920331 -0.055471282 0.047396593 0.04127062 0.06835291 0.050793335 -0.0077308826 0.07565563 -0.008329071 0.0017498762 -0.0017200137 -0.00070867344 -0.08407841 -0.099245444 -0.0036745018 -0.049539838 -0.047362074 -0.11109862 0.035574667 0.020611068 0.015418386 0.06016859 -7.906862e-05 -0.042619996 -0.004817507 -0.015508824 -0.014953988 0.04604795 0.045086343
HP:0001263 0.040527318 0.037949894 -0.09845077 0.06329589 -0.049061004 0.017397322 0.0121026 0.005213724 -0.0066498355 -0.0044827005 0.06785082 -0.05475811 0.060498208 -0.02284077 0.04129604 -0.028548406 0.051077235 -0.0581512 -0.07707211 0.046535198 0.013196949 0.06749377 0.087361015 -0.029384043 -0.01647633 -0.11643508 0.0695953 -0.0617629 -0.114338756 -0.03998618 -0.021661121 0.07079827 0.04962197 0.015720109 0.028242053 -0.06564899 0.06514019 0.031788852 -0.07368945 0.0047929054 0.019770607 0.03529305 -0.0118983565 -0.016901102 0.0036369462 -0.0062986882 -0.007954631 -0.018245084 -0.044274386 -0.026488159 0.00879511 0.071566075 0.116483234 0.05657991 -0.041746926 0.09849156 -0.02564074 0.08301256 0.0034163385 -0.13442881 0.019992873 0.04296 -0.055869002 0.029317249 0.07434513 -0.021309786 0.004498727 -0.023616655 0.019526646 0.09021596 0.12037512 0.0803964 -0.06745342 -0.058972895 -0.02809539 -0.16685303 -0.027392592 -0.0115201315 0.0720504 -0.036829464 -0.035870396 0.09156035 -0.03703189 -0.017072408 0.019621532 -0.003177659 0.018834596 0.022156045 -0.00034518653 -0.0581731 0.024437854 -0.032501668 -0.0011744001 0.024531161 -0.01549362 -0.005259747 0.10167766 0.04477035 -0.08284875 0.05322402 -0.058890104 0.04952085 0.038129147 0.07168752 0.04316483 -0.0058907866 0.07682089 -0.0047181835 0.0014980877 -0.0035060914 -0.004907939 -0.08097867 -0.0983491 -0.00064067927 -0.042043064 -0.045157462 -0.10554381 0.03643415 0.021472406 0.016918052 0.0566072 -0.00072158343 -0.03938272 -0.008092124 -0.018578162 -0.016877439 0.04400529 0.039457217
HP:0002240 0.033941556 0.03406067 -0.08857605 0.056548495 -0.046595667 0.016129535 0.007564898 0.0004885932 -0.008036471 -0.0037029432 0.06380641 -0.056489684 0.052848604 -0.026216093 0.036817305 -0.029179733 0.04359132 -0.05107487 -0.06917577 0.045794632 0.010333919 0.06340286 0.07591191 -0.030318622 -0.017065858 -0.101593494 0.06046709 -0.05172922 -0.10113271 -0.037653286 -0.0152189825 0.06468296 0.050105218 0.015884493 0.019736359 -0.06304445 0.052148 0.025611116 -0.061260138 0.0057489406 0.016418878 0.0348345 -0.01725421 -0.008828414 -0.0016991453 -0.0055787726 -0.0024984304 -0.018350279 -0.044513382 -0.023274928 0.009331163 0.06712653 0.10693461 0.050054293 -0.03464608 0.08531113 -0.029241132 0.07990293 -0.0004405106 -0.11937564 0.02030191 0.042300034 -0.054898787 0.024319392 0.06605617 -0.013596358 0.0032326528 -0.018554823 0.016575616 0.08365456 0.10981708 0.07334501 -0.06272752 -0.059127104 -0.023846826 -0.14983574 -0.027602294 -0.0115394285 0.06943073 -0.033337098 -0.025974497 0.07943602 -0.036462203 -0.01901833 0.017115775 -0.0026705484 0.013827557 0.023069449 -0.0020080723 -0.05226297 0.01753356 -0.026190985 -0.0005520018 0.021158341 -0.015082537 -0.004115042 0.087421216 0.038994975 -0.08135612 0.044135727 -0.0471236 0.0408611 0.03274185 0.061599698 0.045442957 -0.011055846 0.07031217 -0.0023237886 0.0008032501 0.0025499281 0.00026798897 -0.070962094 -0.08820338 -0.0050411047 -0.037431445 -0.03878479 -0.099543475 0.029284209 0.020948468 0.01094639 0.049210653 0.0021549885 -0.034718588 -0.007540765 -0.015996315 -0.014687925 0.04457886 0.03821868
HP:0001945 0.03417266 0.03456778 -0.083007276 0.05893176 -0.036343966 0.0185968 0.013528825 0.0020432142 -0.0032615857 -0.0024205728 0.055089347 -0.048882216 0.048846588 -0.019420173 0.038818374 -0.02577363 0.040563844 -0.050673462 -0.063508816 0.040970154 0.008491718 0.05739708 0.074532576 -0.025244672 -0.013557667 -0.095047854 0.056096867 -0.047258448 -0.095934756 -0.03171055 -0.017936068 0.06285208 0.045110144 0.012894467 0.016592946 -0.055308223 0.052850023 0.026223911 -0.061528627 0.0058690244 0.019369477 0.033236686 -0.010833727 -0.00816498 -0.0029481556 -0.0064942637 -0.008335418 -0.0133451605 -0.034907598 -0.022552537 0.0033622014 0.05999411 0.09821529 0.044016227 -0.03645333 0.07724635 -0.021104082 0.06981952 0.0028819467 -0.11149808 0.019699806 0.03364819 -0.051047623 0.026321225 0.058309708 -0.013262938 0.0057406533 -0.016641503 0.02004923 0.0728042 0.10087744 0.06659945 -0.061604593 -0.05464594 -0.022279529 -0.13271584 -0.026722904 -0.014713192 0.059329215 -0.03651416 -0.02336391 0.07544757 -0.032030657 -0.019227069 0.012432175 -0.0026027837 0.01493177 0.01854033 -0.003693139 -0.047461446 0.022235362 -0.02399208 0.0034594187 0.021436557 -0.014968584 -0.002340252 0.08193903 0.037261367 -0.06820905 0.038566224 -0.048586156 0.04263528 0.032947935 0.06013291 0.042958613 -0.008906866 0.0670725 -0.002410875 0.0025537182 -0.004250382 -0.0037765128 -0.066627145 -0.074838504 -0.005729373 -0.039090544 -0.036122367 -0.08768433 0.027421605 0.01937619 0.009437078 0.044168532 0.0023353682 -0.033421595 -0.005797107 -0.016496502 -0.016613878 0.03838122 0.034813832
HP:0000347 0.044719096 0.03836321 -0.10898612 0.06750291 -0.053118546 0.022955392 0.012846568 0.0026350191 -0.005054336 0.00062611466 0.067957014 -0.06354175 0.06227886 -0.02611605 0.048408598 -0.03296857 0.053340245 -0.06175841 -0.07941739 0.053482905 0.014014651 0.07485085 0.0955033 -0.031692535 -0.020451209 -0.1237041 0.07824085 -0.065816395 -0.126401 -0.03994684 -0.02241616 0.08049199 0.05891872 0.01958526 0.024540504 -0.0731605 0.06923398 0.027804388 -0.07890357 0.0070881653 0.017973835 0.040801577 -0.019439446 -0.017766155 -0.0031819032 -0.007775609 -0.008253079 -0.017723195 -0.046511415 -0.024086952 0.0071526505 0.073817424 0.124055825 0.059037022 -0.045613248 0.104428895 -0.031300306 0.09196213 0.002517167 -0.14081296 0.022056539 0.045577776 -0.061964788 0.029981483 0.08082939 -0.016029084 0.002557494 -0.025349384 0.026948374 0.092192784 0.12838519 0.08715527 -0.071818195 -0.063531406 -0.028538363 -0.17809418 -0.031756364 -0.016077243 0.08203622 -0.038849086 -0.033589873 0.096267626 -0.035267446 -0.021693362 0.02127982 -0.0016460624 0.020027835 0.028977271 -0.0055851275 -0.060539793 0.0279451 -0.028843066 6.1203777e-06 0.023025746 -0.01943141 -0.0021367131 0.104940124 0.049184762 -0.08911953 0.055739187 -0.056692213 0.04720296 0.0431254 0.07273169 0.049526487 -0.012844382 0.08483967 -0.0062455153 0.0010467375 -0.0028720105 -0.0036082175 -0.08174803 -0.102757454 -0.0033375241 -0.046014406 -0.046152897 -0.111719124 0.03949247 0.025347563 0.014131648 0.06113182 -0.002891535 -0.038947105 -0.0051959744 -0.018177751 -0.017618828 0.045818597 0.04739268
HP:0002027 0.040768906 0.03452169 -0.09810444 0.06498247 -0.0471521 0.014614838 0.009113642 -0.00023718341 -0.00415508 -0.0052927746 0.06392821 -0.05835166 0.054217402 -0.027787479 0.0393081 -0.028818533 0.048759263 -0.05383629 -0.069414735 0.04892891 0.008849686 0.06772641 0.08032296 -0.027634127 -0.017458767 -0.10686421 0.064533606 -0.053232115 -0.10584226 -0.03518481 -0.01733904 0.06960811 0.049736872 0.013033054 0.022342458 -0.06205375 0.055028554 0.023116285 -0.06745029 0.00727281 0.02181379 0.031715736 -0.016134102 -0.014853707 -0.003234427 -0.002734836 -0.0027924562 -0.016511358 -0.046686374 -0.019885298 0.009084983 0.06759959 0.10857722 0.05120058 -0.039483264 0.0876143 -0.02993178 0.084105946 0.0021173977 -0.12391831 0.017381905 0.04355357 -0.059468355 0.028964534 0.064962566 -0.013661851 -0.00034239152 -0.024637215 0.024326853 0.084086075 0.1130729 0.081855215 -0.061565936 -0.054671388 -0.027122395 -0.15217583 -0.02517936 -0.01063156 0.073232 -0.033904172 -0.03254518 0.08474403 -0.036042634 -0.020751495 0.019929139 -0.0054200683 0.015502138 0.02174902 -0.006299962 -0.059020985 0.017519094 -0.030131646 0.002369775 0.019000975 -0.01938664 -0.0013040217 0.091279455 0.042806003 -0.08388708 0.049813796 -0.049355276 0.046705086 0.036670685 0.069777936 0.043362465 -0.0082512945 0.072440445 -0.004888157 -0.0017455458 0.0030815464 -0.003223778 -0.0719385 -0.08737123 -0.00041493253 -0.044684846 -0.046328418 -0.09890637 0.029892249 0.017522968 0.015141142 0.051698364 -0.0016591391 -0.03308999 -0.006930518 -0.017906584 -0.014208801 0.0459127 0.041388437
HP:0001873 0.03123026 0.031340078 -0.074825265 0.045449797 -0.032858882 0.010967391 0.010214163 0.005610462 -0.003659731 0.000583347 0.044230025 -0.043113768 0.039732095 -0.015269696 0.029447054 -0.024376903 0.031246284 -0.036492247 -0.051187437 0.03470371 0.008784991 0.05075516 0.06321703 -0.0208717 -0.008617397 -0.0817748 0.050843578 -0.04106574 -0.08333574 -0.02724776 -0.015952768 0.05426777 0.037853297 0.01276086 0.018252254 -0.046090204 0.04239262 0.02057235 -0.051451627 0.0049469965 0.011695222 0.02289171 -0.011687121 -0.010176128 -0.0040494287 -0.0064105117 -0.0022310738 -0.013539544 -0.035536908 -0.021278398 0.004336226 0.051863797 0.08647286 0.038323887 -0.030321436 0.07081063 -0.023621712 0.06354165 -0.0010713809 -0.09530962 0.01683119 0.033743266 -0.04129524 0.018471366 0.053033512 -0.008971414 0.0012985198 -0.014816002 0.011816049 0.06497417 0.083719335 0.060897797 -0.052609485 -0.043505263 -0.020207886 -0.118992805 -0.018891497 -0.013796432 0.052677527 -0.029302986 -0.021324819 0.06414898 -0.028762845 -0.016137138 0.012306699 -0.0063060652 0.011181264 0.015446555 0.0013865585 -0.041729286 0.017488757 -0.017648824 0.0028729774 0.01602374 -0.017626438 -0.0023724458 0.06811367 0.03588555 -0.06390777 0.03402435 -0.041200012 0.036700834 0.028649127 0.04629416 0.034665745 -0.006640213 0.052980334 -0.0027004562 -0.0026917013 -0.0020719331 -0.0056099137 -0.052352913 -0.06469797 0.00066140766 -0.03093504 -0.033118375 -0.075599596 0.022902403 0.012377386 0.006763566 0.040050402 0.0026203096 -0.03095478 -0.008323824 -0.013043722 -0.011102495 0.033270918 0.031248732
HP:0000822 0.033855096 0.030537998 -0.08969506 0.052927952 -0.04089705 0.015445763 0.011569374 0.0011450251 -0.006629248 -7.8475045e-05 0.058590572 -0.049626675 0.049557824 -0.02575689 0.039076153 -0.029229857 0.041662864 -0.047001503 -0.0665158 0.039133206 0.011965876 0.057991225 0.07308167 -0.028615586 -0.011853113 -0.09946534 0.05695691 -0.052745294 -0.100236535 -0.03353971 -0.019108476 0.06469652 0.044868175 0.014806048 0.017244942 -0.06252444 0.05652735 0.020398889 -0.06110301 0.008625967 0.015762808 0.030638464 -0.012295014 -0.011092651 0.00082980323 -0.00857428 -0.007976862 -0.015200646 -0.036520235 -0.019592386 0.0043624183 0.063606516 0.10407584 0.04797769 -0.03486212 0.08285623 -0.023050595 0.07424186 0.0028614393 -0.11255779 0.02208687 0.036032047 -0.0509953 0.020716889 0.059159786 -0.017675342 0.0009951504 -0.01711316 0.021162543 0.07661959 0.09800637 0.072722904 -0.060748585 -0.051149193 -0.021397881 -0.1413235 -0.024726259 -0.014139382 0.0667803 -0.036159538 -0.030152999 0.07933003 -0.028363442 -0.018634673 0.019115515 -0.0013037053 0.013311942 0.01867287 -0.002047427 -0.049221285 0.023159893 -0.02385559 -0.00051723834 0.019185618 -0.019579364 0.0022777524 0.08760565 0.043063637 -0.072589934 0.040096767 -0.048653048 0.0400208 0.032736655 0.06206128 0.036001027 -0.0109886015 0.064946815 -0.0034287157 0.00080642774 -0.0034338166 -0.0022321844 -0.06641339 -0.08194312 0.0005153726 -0.03668968 -0.034849066 -0.0950788 0.028922362 0.018325424 0.01288909 0.048066296 0.0029531885 -0.031411946 -0.0040195603 -0.016931886 -0.01185041 0.03593681 0.032527685
HP:0002014 0.037778236 0.03939674 -0.09136672 0.06040589 -0.041283265 0.018177347 0.013645358 0.0005433356 -0.007334354 -0.0045456244 0.060775954 -0.05797661 0.055070616 -0.027262349 0.04517248 -0.02573267 0.04758688 -0.053700637 -0.06777741 0.048558995 0.00980918 0.06700506 0.07991059 -0.032157827 -0.015746564 -0.107011914 0.062566124 -0.055261698 -0.10582154 -0.03232109 -0.019430973 0.065487795 0.050030824 0.01873919 0.022708412 -0.06298033 0.059686486 0.028499587 -0.064414375 0.0080193095 0.020009782 0.036890265 -0.013233499 -0.01012901 0.0035053494 -0.008446428 -0.0026806055 -0.021361005 -0.041219227 -0.022544207 0.0053514866 0.070118494 0.109454446 0.050097313 -0.03452913 0.09182631 -0.024318537 0.08381845 -0.00078616786 -0.12158703 0.02400745 0.044519156 -0.05852829 0.027229264 0.06961716 -0.017808614 0.0049457867 -0.017959895 0.02191381 0.08322365 0.1063999 0.07799791 -0.06714609 -0.058755852 -0.028635556 -0.15012793 -0.025716383 -0.009678351 0.06526299 -0.03323787 -0.02823316 0.08214699 -0.03474456 -0.020275036 0.016914327 -0.00038379416 0.021702163 0.021104798 0.00046555456 -0.054880776 0.017367125 -0.028402863 -0.0010251286 0.01824177 -0.020639602 -0.004746664 0.0967715 0.043803588 -0.0812933 0.04488918 -0.051097486 0.047217216 0.03466684 0.06304149 0.043786507 -0.012114022 0.07288022 -0.0011749825 0.0012519977 0.003120225 -0.00074220076 -0.07353224 -0.09131691 -0.004433471 -0.04481436 -0.038829345 -0.09608843 0.03340379 0.022570228 0.010017424 0.056362316 -0.00040582364 -0.034198556 -0.003918108 -0.01731133 -0.019454945 0.04350563 0.036587592
HP:0001508 0.034947686 0.0392774 -0.09109345 0.060571555 -0.041641247 0.021431798 0.01303159 0.0067769666 -0.00788925 -0.0033643926 0.060136367 -0.056350756 0.05133896 -0.026369948 0.040391978 -0.032453373 0.045220062 -0.049567677 -0.07320464 0.046659395 0.01389251 0.06299229 0.07633631 -0.030609887 -0.015444135 -0.099980004 0.06553556 -0.05481521 -0.10902973 -0.032350887 -0.017601132 0.06953858 0.049318846 0.018016089 0.021563563 -0.06093685 0.059879065 0.026317526 -0.06471171 0.0038982497 0.018328244 0.03296456 -0.016890159 -0.010427637 0.00224935 -0.009353397 -0.0071395966 -0.018572304 -0.040875074 -0.021911416 0.006599894 0.06787077 0.10857868 0.04687503 -0.04088204 0.08764329 -0.026662052 0.07970326 -0.00263872 -0.11863846 0.020010063 0.040983733 -0.05763453 0.027396495 0.06705893 -0.019585375 0.005091062 -0.019911908 0.018390814 0.080685385 0.10918958 0.080221914 -0.06632625 -0.05821871 -0.023682289 -0.1538149 -0.026387187 -0.0110119935 0.0719887 -0.034098025 -0.02982389 0.08043125 -0.031814642 -0.01883896 0.02103928 -0.006364375 0.017587163 0.025593657 -0.007022712 -0.051757716 0.019730035 -0.02494499 0.003332189 0.023117438 -0.017542997 -0.00157757 0.09110076 0.04528906 -0.079593025 0.042956796 -0.049894117 0.040016595 0.03551234 0.062359717 0.039707694 -0.012148317 0.07407756 -0.006636801 -0.0040672654 0.0032597918 6.125388e-05 -0.070497535 -0.0900296 -0.002018711 -0.040301137 -0.040308785 -0.1020476 0.028681064 0.017039433 0.01273088 0.056196075 -0.0029312668 -0.032853458 -0.0077312146 -0.011305933 -0.0137953125 0.039386436 0.04200937
HP:0011968 0.039555606 0.03723697 -0.100672245 0.065988466 -0.046840142 0.017684175 0.015616001 0.0047701537 -0.008742785 0.00062800257 0.0641725 -0.0585442 0.060931474 -0.029300123 0.041347243 -0.02952285 0.04582237 -0.06049189 -0.07628521 0.045286577 0.0148496255 0.06778494 0.08905719 -0.0316618 -0.016534792 -0.11465501 0.06905195 -0.06038774 -0.11965521 -0.034073643 -0.020508142 0.06961281 0.056712255 0.0173105 0.025478236 -0.06805395 0.061717294 0.029671153 -0.06980602 0.004573387 0.023518959 0.035028964 -0.015275205 -0.016700791 0.0038281067 -0.0044225855 -0.0061286665 -0.018236872 -0.04516559 -0.028991204 0.008295502 0.07218521 0.11789095 0.050405037 -0.040016647 0.09940244 -0.028187213 0.086123206 0.0021042468 -0.13372274 0.024879452 0.04293936 -0.056748617 0.027087243 0.07097245 -0.01567053 0.004971086 -0.024137331 0.019924829 0.091401406 0.12001458 0.08749384 -0.06815397 -0.06412739 -0.027965073 -0.16029061 -0.03264345 -0.016081784 0.078349784 -0.040104058 -0.03507869 0.08883599 -0.039288614 -0.017769752 0.017533945 -0.00032996907 0.01575657 0.027125433 -0.006224862 -0.059400268 0.021088835 -0.032325692 0.0009285955 0.023362024 -0.023717374 -0.0037825792 0.10189962 0.04443897 -0.086632006 0.047834337 -0.057703238 0.044091873 0.04071536 0.07382036 0.04490748 -0.011985324 0.07709075 -0.0027347417 -0.0016129126 -0.004015853 -0.003707797 -0.07660645 -0.09842394 0.0003891082 -0.047849834 -0.046420433 -0.10963921 0.030076146 0.021896202 0.014007339 0.05396133 0.0022303513 -0.040279444 -0.009297358 -0.01831389 -0.013962169 0.049647387 0.042900626
HP:0001249 0.03825249 0.035500526 -0.099173136 0.0646886 -0.04739107 0.015413246 0.010778932 -0.00015095843 -0.0080200285 -0.0039751283 0.07023234 -0.05819591 0.054304656 -0.02993347 0.04094863 -0.028499337 0.04638176 -0.058588583 -0.07225023 0.052053005 0.0088751 0.06851868 0.08730469 -0.033493627 -0.020137979 -0.11152391 0.07325917 -0.05868792 -0.116917886 -0.03579746 -0.015180534 0.07489644 0.053884912 0.02166832 0.02403275 -0.07223502 0.059821542 0.029524848 -0.07129018 0.00929512 0.021678558 0.03932563 -0.014776888 -0.01627117 -0.00023367618 -0.004931512 -0.005227467 -0.023185397 -0.044286516 -0.027116204 0.0073958524 0.07019408 0.11629316 0.053774126 -0.0411521 0.09859589 -0.029131928 0.08869977 0.0022133251 -0.1287964 0.019726524 0.041991387 -0.058698636 0.0272186 0.07498327 -0.018467253 0.0056460104 -0.019162446 0.02246445 0.092625044 0.11921711 0.08349168 -0.068121456 -0.062227193 -0.030890148 -0.16469008 -0.026640454 -0.011428468 0.077506885 -0.036971617 -0.03492891 0.08769517 -0.039889988 -0.018071383 0.016283782 -0.0020185781 0.01779239 0.023257183 -0.00025749992 -0.060259253 0.022301435 -0.030452166 0.0046425164 0.02572446 -0.01657279 -0.004848966 0.10006846 0.043528784 -0.08762482 0.048142653 -0.05525447 0.05057295 0.039076492 0.06653536 0.047274068 -0.007890639 0.08027684 -0.0048185503 -0.0019247298 -0.0032313422 0.00027515832 -0.08090951 -0.09637187 0.00018748574 -0.047094945 -0.04580974 -0.107895866 0.034529973 0.024597406 0.01637841 0.05933322 0.0025711681 -0.03634427 -0.008072606 -0.012697463 -0.01987736 0.042085662 0.03887662
HP:0000407 0.03523466 0.037877258 -0.09485386 0.05972868 -0.043204382 0.018026985 0.014424263 0.0013858405 -0.006486151 -0.0028007617 0.05948921 -0.053074468 0.04990638 -0.026500968 0.037868384 -0.026352521 0.04594206 -0.0518136 -0.0697449 0.044742975 0.010909909 0.066635154 0.079966515 -0.03316306 -0.018207373 -0.0989667 0.062183943 -0.05240381 -0.10872463 -0.037414346 -0.018121429 0.06771684 0.048056293 0.012849067 0.025396593 -0.06420998 0.059728954 0.028051957 -0.064397864 0.0059046596 0.01748883 0.03294847 -0.018073548 -0.014841318 -0.0014299444 -0.006667411 -0.0033698215 -0.015580966 -0.042853463 -0.021289116 0.003852238 0.062401168 0.10697967 0.046691094 -0.040399957 0.08804634 -0.022852773 0.07555371 0.0030773748 -0.11708733 0.022308674 0.039918024 -0.05659516 0.023880484 0.06477492 -0.01329617 0.0024977662 -0.017335888 0.023967821 0.07991753 0.10829456 0.074329056 -0.06609805 -0.05280971 -0.022909913 -0.14771144 -0.02966102 -0.013182041 0.07027035 -0.036784615 -0.027048353 0.0805824 -0.035028834 -0.014064285 0.017561922 -0.0023129308 0.015735187 0.019420728 -0.006567941 -0.05598451 0.017267479 -0.02369212 0.0042202296 0.018288845 -0.01667268 -0.0005912399 0.092146926 0.045972236 -0.07573445 0.042805173 -0.04828297 0.040077705 0.03135878 0.066491656 0.043549836 -0.009775538 0.07308423 -0.0066481386 0.0024998768 0.0036613103 -0.004843132 -0.06809795 -0.085128024 -0.002882245 -0.042268828 -0.041307542 -0.09393942 0.030461058 0.022778617 0.012083225 0.048893355 -0.0015582497 -0.031713083 -0.006372325 -0.01809895 -0.019436274 0.040410828 0.038325623
HP:0001252 0.02640595 0.030568482 -0.076938026 0.052443538 -0.039374977 0.016167467 0.010314847 0.006667947 -0.0059961835 0.000557047 0.051288486 -0.04095168 0.042132027 -0.017650476 0.033348236 -0.023416964 0.036266558 -0.040249556 -0.05782198 0.040469762 0.01362443 0.055059884 0.06621843 -0.024745967 -0.013182137 -0.08470149 0.055199027 -0.04288963 -0.08737524 -0.030349309 -0.009592175 0.056270655 0.04150027 0.0096987905 0.020942997 -0.053061035 0.044437665 0.021220382 -0.055537693 0.0047351606 0.015323366 0.025690421 -0.012372573 -0.009575541 0.0028672095 -0.009160777 -0.004269342 -0.016060289 -0.032714553 -0.021047838 0.0020239605 0.05070543 0.09198238 0.04144123 -0.029657163 0.07303238 -0.019631356 0.06813243 0.0016956164 -0.097077586 0.020282488 0.037313934 -0.042255845 0.01749388 0.053410914 -0.0148499785 0.002397813 -0.016498685 0.018976191 0.07020161 0.08750394 0.06492543 -0.05019861 -0.04642987 -0.023074452 -0.12573291 -0.025372768 -0.01356136 0.05191928 -0.032300703 -0.02148838 0.06591175 -0.030433955 -0.014820015 0.010682264 -0.00501633 0.011898541 0.016321149 -0.005103387 -0.042079255 0.018100515 -0.024678275 0.002188166 0.018576043 -0.015825054 -0.0004410974 0.07649699 0.03325918 -0.06420618 0.041070182 -0.04125733 0.032666627 0.03206919 0.051007528 0.03469054 -0.010350336 0.058682255 -0.007707314 -0.0034327295 0.0003749361 0.0012874951 -0.056705605 -0.07181489 -0.003920418 -0.03222557 -0.031646702 -0.084405325 0.026214587 0.013446143 0.013094937 0.045058884 -0.0011416314 -0.028959604 -0.008291566 -0.009263298 -0.011684713 0.03777415 0.031932857
HP:0000518 0.028147662 0.03058507 -0.071556 0.04402015 -0.032694444 0.009847833 0.009894452 0.0011232345 -0.0057785804 -0.003978279 0.049075693 -0.043763544 0.039975837 -0.014753862 0.027876059 -0.020332983 0.03244715 -0.040985238 -0.0498645 0.033956837 0.0056439005 0.050252803 0.06267749 -0.024168693 -0.0127359815 -0.08076404 0.053288125 -0.03788055 -0.08188959 -0.025983393 -0.015388431 0.05062207 0.03989363 0.010150473 0.017755227 -0.050720632 0.0460081 0.019488076 -0.05218245 0.004233444 0.01099336 0.021597117 -0.008328479 -0.009798933 0.0012690736 -0.00706406 -0.0072174827 -0.0145232305 -0.030136604 -0.019453045 0.0024348004 0.047913477 0.0787076 0.038468037 -0.025871497 0.0638159 -0.022944858 0.06328473 -0.0016950369 -0.09003943 0.012485988 0.03425376 -0.043317642 0.016755 0.053321246 -0.012348742 0.0051413877 -0.016620483 0.018854843 0.06641713 0.07885342 0.05746468 -0.045185193 -0.042240776 -0.018252362 -0.11628551 -0.02172576 -0.006871168 0.05179973 -0.031503785 -0.024086267 0.059189267 -0.023729557 -0.01216825 0.014223348 -0.00455258 0.013966115 0.018569516 -0.004703295 -0.038642544 0.017082466 -0.02106627 0.002417974 0.012809835 -0.015240465 -0.002342709 0.067884035 0.034048945 -0.05829955 0.03714179 -0.042714726 0.035196032 0.025219347 0.047984675 0.034797918 -0.008222207 0.051154833 -0.004562954 0.001929153 -0.0023839117 -0.00539687 -0.05251495 -0.06729946 -0.0031799248 -0.030644104 -0.029839655 -0.07786232 0.020359403 0.012686118 0.011195538 0.04290505 0.0028005834 -0.027101846 -0.0089747915 -0.013669627 -0.013702007 0.035232633 0.029870326
HP:0001824 0.026282439 0.028118199 -0.07466056 0.045678712 -0.03668857 0.013581594 0.011005197 0.0045293067 -0.0007233198 -0.002155149 0.048378855 -0.044350736 0.044379037 -0.015315368 0.031326957 -0.024714857 0.034178022 -0.037005097 -0.056017227 0.037487604 0.012683903 0.04722894 0.059082948 -0.023856752 -0.01348716 -0.08326582 0.05168458 -0.042861953 -0.08389706 -0.02406964 -0.0149016185 0.05544836 0.03767916 0.011357353 0.015532311 -0.052945547 0.04455321 0.023839114 -0.053521562 0.004347659 0.01470927 0.027241746 -0.007772961 -0.007826505 -0.00081811904 -0.0034866205 -0.0027986467 -0.01175149 -0.03406481 -0.021778878 0.0014573588 0.04854843 0.087564975 0.040237077 -0.029005537 0.06842018 -0.018079545 0.05876052 0.0040421453 -0.094759405 0.017854482 0.031126734 -0.03949012 0.02231987 0.049502667 -0.008911281 -0.0013316013 -0.019962799 0.011870689 0.065038875 0.081598684 0.06401328 -0.04799259 -0.044304088 -0.021006135 -0.11498199 -0.023310008 -0.012294393 0.05166121 -0.024744282 -0.023361424 0.061122924 -0.025450213 -0.016037315 0.009332035 -0.00689393 0.012701869 0.0141034685 -0.0054254886 -0.04631298 0.014073525 -0.0243579 0.00012704612 0.018580437 -0.013986403 0.0009714589 0.06909238 0.035533886 -0.06587733 0.03391825 -0.036723968 0.030079493 0.03128198 0.050708953 0.037261423 -0.005100513 0.052508697 -0.0066945036 0.00082455535 -0.0032264707 -0.0035002104 -0.057324015 -0.070545204 -0.006426229 -0.031729918 -0.03239922 -0.07552208 0.025584074 0.014976258 0.010784099 0.038767654 0.0031806342 -0.023983058 -0.007775157 -0.010069169 -0.012278031 0.03207203 0.034882758
HP:0001903 0.043709468 0.042390935 -0.10075634 0.06783065 -0.050995544 0.017556582 0.012949 0.0009943503 -0.009306541 -0.0024020898 0.07179273 -0.06127094 0.05703735 -0.026994495 0.048396487 -0.028421778 0.047166504 -0.05698777 -0.076773904 0.04830065 0.011896385 0.07429167 0.088228874 -0.036166027 -0.019349137 -0.116418935 0.06778088 -0.057152633 -0.11584307 -0.038104746 -0.021841522 0.076334536 0.054735318 0.015202916 0.024927216 -0.06889145 0.06567884 0.03150538 -0.06870277 0.0037524689 0.020505223 0.038069107 -0.0155099025 -0.014298081 -0.0030800388 -0.0070171 -0.008773611 -0.021466201 -0.044908244 -0.029054297 0.0054666973 0.070068486 0.12148232 0.05522649 -0.039243054 0.100475304 -0.029658912 0.08567679 -0.0028220215 -0.13167264 0.024627004 0.04818998 -0.060212314 0.03163931 0.07643271 -0.021088809 0.0063953856 -0.021212442 0.023975804 0.09444976 0.12291779 0.08761678 -0.07157879 -0.066480644 -0.027074408 -0.16385703 -0.029241396 -0.01418949 0.07954777 -0.03812522 -0.030331884 0.092426285 -0.03875547 -0.01594932 0.018134903 -0.0043397616 0.017101038 0.021383734 -0.0066031576 -0.05623408 0.021449912 -0.03283081 -0.0017075916 0.025817525 -0.019004242 -0.0031845015 0.098225154 0.04717338 -0.08704152 0.050818227 -0.054345567 0.048093684 0.04269626 0.07155857 0.04931748 -0.008597638 0.07630183 -0.0030594033 0.0026472195 -0.0010306375 -0.0013536499 -0.07669394 -0.099683166 -0.0003515707 -0.04783469 -0.04772449 -0.105585665 0.035548165 0.019853419 0.012967163 0.056069486 0.0017252805 -0.040124483 -0.011670921 -0.018931078 -0.017384144 0.04944423 0.04485678
HP:0002094 0.039835952 0.036537424 -0.09749845 0.065014 -0.043154124 0.017650735 0.008241624 0.0048125735 -0.002296179 -0.0045183697 0.06274321 -0.055109236 0.05210369 -0.026324164 0.03707003 -0.029618818 0.045243785 -0.055974584 -0.073294796 0.047038417 0.01516195 0.067860916 0.076097384 -0.03239424 -0.01596016 -0.10595772 0.0668725 -0.05540686 -0.10821934 -0.035965305 -0.014794778 0.07052983 0.04708288 0.018088302 0.023132367 -0.061756674 0.053982873 0.029278688 -0.06628899 0.002750962 0.017974392 0.035878357 -0.015014312 -0.010467174 0.0036314551 -0.0067241923 -0.0025420492 -0.016587779 -0.039338984 -0.024786372 0.0032222422 0.07091532 0.10413469 0.04962246 -0.041358724 0.085990034 -0.02269502 0.07591056 -0.0025692626 -0.12110955 0.017610027 0.037579168 -0.054745503 0.023722103 0.069355406 -0.020493306 0.0029801696 -0.0229282 0.021243723 0.085788794 0.10504578 0.080567054 -0.064294636 -0.05683188 -0.026302513 -0.14793791 -0.030327566 -0.011119044 0.07132239 -0.038625397 -0.0305755 0.08447305 -0.03293648 -0.020698987 0.015034823 -0.005889508 0.019418921 0.02564587 -0.004361333 -0.05107013 0.022334304 -0.025647396 -0.0028106489 0.018077746 -0.021070458 -0.0010681541 0.094864815 0.043895736 -0.082970545 0.046295732 -0.051829364 0.04328969 0.035532076 0.06706262 0.041065954 -0.005511753 0.071125835 -0.008066904 -0.0032694498 -0.00017725583 -0.0017261737 -0.07477489 -0.08432431 -0.0010329869 -0.045444652 -0.04413588 -0.09733887 0.027076336 0.016832095 0.01620362 0.052596875 0.0012665609 -0.036821242 -0.010487329 -0.015403418 -0.015566062 0.03881125 0.036854796
HP:0000508 0.026866306 0.026787484 -0.07096196 0.04728487 -0.029163629 0.013715508 0.009354514 0.001168655 -0.006526433 0.00096986536 0.044577084 -0.040291563 0.035760492 -0.018161623 0.03006387 -0.020961944 0.03249503 -0.039786562 -0.047486957 0.02837016 0.0119421035 0.046781182 0.05320706 -0.020580966 -0.0137316855 -0.07190319 0.048550338 -0.037240826 -0.07706545 -0.023802917 -0.009939964 0.04402839 0.037155386 0.009109547 0.01737583 -0.042124394 0.04245927 0.018967293 -0.04842237 0.0061467 0.012941765 0.023428302 -0.007848962 -0.00851656 0.00032078975 -0.007169569 -0.0065032174 -0.012256725 -0.030018574 -0.02002538 0.0041670483 0.04739867 0.07503926 0.03568906 -0.024815824 0.06277291 -0.021491794 0.05926701 -0.001656233 -0.088725865 0.012177737 0.029586267 -0.036193203 0.016971305 0.04559968 -0.010570314 0.0028698426 -0.012065342 0.016438438 0.060696978 0.07574303 0.058647297 -0.04576326 -0.04202387 -0.02103404 -0.11055366 -0.02307467 -0.010489381 0.047364864 -0.025224822 -0.01853942 0.061247203 -0.02285989 -0.013916761 0.013398109 -0.00427666 0.009063384 0.01252883 -0.0031796135 -0.039870236 0.011383874 -0.019897584 0.0020934388 0.013589789 -0.015042266 -0.0033445274 0.063051224 0.027920019 -0.06015781 0.031873 -0.038818665 0.034010302 0.021279152 0.04593298 0.030985769 -0.0047476394 0.053256292 -0.000118137206 -0.002260924 0.0025210637 0.0010670915 -0.051790327 -0.06133331 0.0007973777 -0.029977767 -0.026418187 -0.070765086 0.021218352 0.017899511 0.012075567 0.03681967 0.0014080278 -0.023058215 -0.005873398 -0.0116674 -0.0140396245 0.026689576 0.024962513
HP:0001744 0.031085871 0.03169319 -0.08264866 0.055269457 -0.037579276 0.014427498 0.012763107 0.0061252094 -0.0016721133 -0.0015071329 0.057791118 -0.050354414 0.048239727 -0.024593722 0.03750611 -0.024431469 0.04057283 -0.04979288 -0.059173286 0.03814699 0.013327165 0.055783093 0.06954943 -0.025673136 -0.011985839 -0.09198337 0.056835715 -0.051546503 -0.09355628 -0.02772492 -0.011486469 0.060403567 0.044915568 0.011445276 0.01998893 -0.05333158 0.052444838 0.025858834 -0.05990756 0.0020154142 0.017549368 0.02794066 -0.009382863 -0.014305219 -0.0035808214 -0.0066154012 -0.005795814 -0.019453954 -0.034325972 -0.018047195 0.0044682682 0.055942956 0.093360245 0.043812968 -0.03403567 0.07972584 -0.01954122 0.06820584 0.0005464062 -0.10574205 0.014323972 0.033416945 -0.050142393 0.022738557 0.055137113 -0.018550398 0.0014701774 -0.01561424 0.014664428 0.07144175 0.09587922 0.068511985 -0.054806203 -0.050869394 -0.021141253 -0.13498874 -0.02569875 -0.011372464 0.057928644 -0.032179818 -0.026716594 0.06749427 -0.031726506 -0.017779866 0.018928709 -0.0033169508 0.016215086 0.016620358 -0.0057478286 -0.048999272 0.019913752 -0.026184676 0.004268974 0.015391514 -0.019639827 0.0001951344 0.08268613 0.03605107 -0.0679763 0.036484737 -0.043630946 0.03913814 0.034429565 0.05836986 0.03498444 -0.004625865 0.061126675 -0.0041631483 0.002762669 -0.0014494226 -0.00095050875 -0.061524954 -0.07498526 -0.0006961297 -0.032950953 -0.037074186 -0.08938398 0.029470818 0.016076855 0.007631772 0.04777087 0.004228507 -0.034757633 -0.006367239 -0.009049157 -0.016022153 0.03910459 0.03198999
HP:0002315 0.03877498 0.03650804 -0.09062848 0.062158525 -0.045415442 0.015788656 0.009666513 0.00085967546 -0.005677842 -0.0027031954 0.06308566 -0.051443238 0.052049562 -0.018942168 0.036876187 -0.02793193 0.042770017 -0.05164322 -0.066553675 0.044497095 0.009543516 0.064802535 0.079437666 -0.026855078 -0.01721506 -0.10070298 0.06504836 -0.049517978 -0.10494665 -0.030299887 -0.012239061 0.06491709 0.04380772 0.012548074 0.022112828 -0.06431144 0.056465607 0.02100408 -0.06602849 0.0049845735 0.018680621 0.030461047 -0.014643724 -0.015433816 0.0033427456 -0.0028604097 -0.004826798 -0.020041075 -0.043584343 -0.01925335 0.002115708 0.061102226 0.103677474 0.04294828 -0.038641468 0.083513744 -0.027982214 0.077178605 0.0037311662 -0.114595465 0.017140454 0.039018795 -0.049171813 0.023780793 0.06235912 -0.017553773 -0.00013355614 -0.017257418 0.02138448 0.07790941 0.10601782 0.07736533 -0.061600126 -0.058016784 -0.02253228 -0.14235836 -0.022853695 -0.012995452 0.069007136 -0.035143018 -0.02487027 0.079043224 -0.031952903 -0.019887064 0.01661065 0.000255884 0.015729189 0.021504361 -0.003083747 -0.05480169 0.022999745 -0.022963952 0.004394024 0.017192792 -0.01846349 -0.0020595824 0.0906941 0.041253917 -0.078190416 0.04531947 -0.045503184 0.04181599 0.03257483 0.060745575 0.042927466 -0.0076206676 0.06456215 -0.0039527616 -0.0009673482 -0.0031699555 -0.0035166848 -0.070888646 -0.08029718 -0.0006862681 -0.04051728 -0.041365985 -0.09705459 0.030441895 0.023271568 0.009072399 0.049185373 0.0008708625 -0.03448257 -0.0059354897 -0.0126066655 -0.011536872 0.042346865 0.036675565
HP:0002017 0.03329059 0.029515492 -0.07282564 0.04991865 -0.037556764 0.01060421 0.0076141153 0.004207018 -0.002437306 0.00066615525 0.052275762 -0.044725046 0.04567105 -0.017921332 0.030333394 -0.024299594 0.037855744 -0.04140072 -0.053162888 0.038620647 0.012070347 0.053422287 0.06533007 -0.020921292 -0.011427807 -0.081214875 0.05258642 -0.040752955 -0.08434199 -0.025359055 -0.01710392 0.051222663 0.039593775 0.012733933 0.020716447 -0.053857315 0.042513616 0.019253477 -0.055595003 0.004311788 0.010996077 0.026754433 -0.010612082 -0.0067120288 -0.0033378196 -0.008575421 -0.00069685286 -0.01608549 -0.034961637 -0.021632006 0.003666703 0.05251394 0.089883015 0.03583592 -0.03018347 0.06766628 -0.022847597 0.06223502 -0.0020747285 -0.09504535 0.0133591425 0.034404375 -0.047659 0.02255753 0.05000368 -0.013924598 0.0011247644 -0.018137975 0.016141161 0.06848031 0.08525277 0.0582043 -0.053024355 -0.049015157 -0.024620939 -0.11618111 -0.018081887 -0.012188079 0.054903183 -0.03038592 -0.025184587 0.068396404 -0.025175624 -0.015132399 0.015991313 -0.0047991187 0.015379592 0.020003181 -0.004921915 -0.04189818 0.019990021 -0.023292037 0.0021908062 0.012345598 -0.011904794 -0.0035110456 0.076989174 0.035162877 -0.06215552 0.03747358 -0.037763484 0.031792525 0.029434783 0.05040319 0.030468265 -0.0066158227 0.057450723 -0.0023708811 0.0007892121 -0.0014967027 0.00050047506 -0.060319215 -0.071252584 -0.0038573896 -0.032684598 -0.033857815 -0.0792458 0.020807516 0.017327147 0.0063170325 0.041646697 -0.0028076305 -0.02979627 -0.0063265916 -0.0080206245 -0.013786738 0.03186527 0.03206629
HP:0000639 0.028512334 0.02898104 -0.07099613 0.041346285 -0.033204924 0.014848183 0.0072836285 -0.0013633845 -0.00018776063 -0.00036742844 0.047831137 -0.038968455 0.036062375 -0.019601194 0.033694293 -0.024385985 0.03189849 -0.03747091 -0.052507624 0.035900045 0.0051114326 0.045856155 0.0618024 -0.0233782 -0.014931745 -0.07771904 0.050133094 -0.041138157 -0.07844826 -0.027847277 -0.013933715 0.04718939 0.038679954 0.013536388 0.017830951 -0.044687655 0.04163501 0.015367924 -0.05185174 0.00176915 0.012168623 0.024604874 -0.01091129 -0.0062075444 -0.0032390628 -0.008634887 -0.0008242816 -0.012681997 -0.030464515 -0.014854073 0.005602744 0.048526373 0.07821435 0.0398515 -0.027045438 0.06531605 -0.022647288 0.0559067 0.0026924158 -0.08837124 0.01480252 0.032421585 -0.040618222 0.019930994 0.052715402 -0.011436749 0.0029026337 -0.015716508 0.017041847 0.06373555 0.08267072 0.05674553 -0.046528317 -0.043803874 -0.017512335 -0.10830627 -0.020418689 -0.006758546 0.05416904 -0.02898141 -0.02249597 0.059424736 -0.022577982 -0.009497077 0.0152736325 -0.004289265 0.013384261 0.018926809 0.0010148081 -0.042278223 0.015996134 -0.016604217 -0.00036119638 0.018213697 -0.012085997 -0.0005633329 0.0697243 0.02857671 -0.06233755 0.029989738 -0.039334267 0.029575655 0.028070481 0.05054363 0.033495024 -0.005090323 0.051429797 -0.004808016 0.0008777906 -0.0012266097 -0.0032422955 -0.052213244 -0.06832168 -0.00560809 -0.0277493 -0.028838066 -0.07540509 0.022773527 0.015456324 0.005433638 0.037985492 -0.0007531162 -0.028961096 -0.0043792706 -0.012471805 -0.014035737 0.031115526 0.031914834
HP:0000708 0.03256774 0.035461552 -0.09589603 0.060665306 -0.041919764 0.018665219 0.0104823345 0.005247809 -0.0046754456 0.0020666644 0.06307668 -0.050041057 0.04961442 -0.025197102 0.03923414 -0.029718991 0.04435886 -0.047341574 -0.06697469 0.043219585 0.009860141 0.061689433 0.07402845 -0.028684597 -0.017162826 -0.10495109 0.065942965 -0.05721041 -0.10905386 -0.030845674 -0.020195382 0.065865055 0.043957118 0.014608078 0.019417029 -0.06581351 0.057978917 0.025860224 -0.061398733 0.0052368497 0.01849877 0.03291455 -0.013667013 -0.013064968 -0.00093529694 -0.0031061799 -0.006590426 -0.015493483 -0.043250486 -0.022126297 0.008194963 0.06884141 0.10922856 0.04721195 -0.038317192 0.08755783 -0.026105486 0.0758082 0.0012405675 -0.1172815 0.01972952 0.04285351 -0.05430456 0.026132748 0.06855508 -0.013114739 0.0057586045 -0.02386973 0.021851452 0.08027589 0.10380408 0.078065634 -0.06376298 -0.0584175 -0.025388442 -0.14687756 -0.026564647 -0.012441332 0.067394674 -0.03751535 -0.027415004 0.08057425 -0.036389444 -0.018399836 0.014585234 -0.0058715343 0.013940189 0.025244836 -0.0031412167 -0.050727077 0.023768859 -0.027159836 0.0014484168 0.023730624 -0.016377052 -0.004404245 0.088374436 0.040065672 -0.07790575 0.04293338 -0.05171856 0.042534277 0.034001604 0.062228277 0.044730905 -0.004806975 0.07049793 -0.0062400764 0.0023019295 -0.0026260687 -0.0033692324 -0.0739874 -0.084251486 -0.006249795 -0.039692253 -0.04490585 -0.094141096 0.031797763 0.017359769 0.015554968 0.05262301 -0.0026618037 -0.0376927 -0.0072665187 -0.012654686 -0.014967822 0.04209283 0.041523
HP:0002119 0.032822303 0.03270614 -0.088517256 0.05737097 -0.04324699 0.012263716 0.008404053 0.0057228142 -0.0053743273 0.00086137356 0.05488046 -0.04677751 0.0480489 -0.018891003 0.038740795 -0.024986414 0.040051263 -0.046392296 -0.059883915 0.042619605 0.011135479 0.061396874 0.071704544 -0.02640044 -0.01136083 -0.09472757 0.05522727 -0.04882933 -0.09940296 -0.03265546 -0.016924081 0.060400352 0.04208058 0.016507173 0.02396081 -0.05879422 0.053153016 0.020421922 -0.061301727 0.0060949298 0.01703154 0.02909424 -0.016038096 -0.014027377 -0.001059423 -0.0061134254 -0.004688524 -0.013417846 -0.039250627 -0.023451699 0.0045070895 0.05897014 0.09738766 0.04861199 -0.033247948 0.07772009 -0.020900687 0.07500587 0.0010603974 -0.110458106 0.022561304 0.03430856 -0.053321056 0.025532145 0.05740018 -0.016869897 0.0025797759 -0.016203094 0.016469808 0.07490931 0.0989826 0.067716695 -0.0540545 -0.04938989 -0.023923475 -0.13808447 -0.02550258 -0.012460319 0.060053553 -0.02930255 -0.024290431 0.07130731 -0.029723281 -0.019002197 0.0127237 -0.0018080376 0.012447183 0.01755299 -0.0058556655 -0.04603366 0.016040364 -0.02363481 -0.0020799714 0.018045401 -0.01294662 0.0011807992 0.0800065 0.03567789 -0.072102495 0.04513597 -0.04514684 0.041212425 0.033432297 0.060309216 0.042195264 -0.008811602 0.06051419 -0.0062210355 0.0013233229 -0.00081745064 -0.00465478 -0.06553434 -0.079207 -0.004482026 -0.041315075 -0.034266323 -0.088629745 0.024511091 0.016476832 0.010557812 0.04735888 -0.0012023154 -0.033984907 -0.008837933 -0.013318618 -0.017433682 0.03615461 0.036353514
HP:0001939 0.036194753 0.037483666 -0.09435116 0.057924252 -0.043960966 0.015531726 0.008482967 0.0068636336 -0.0027128118 -0.0042042974 0.063139334 -0.053370602 0.048623703 -0.022625733 0.035697993 -0.025837157 0.04244658 -0.047366217 -0.069424145 0.042068895 0.014483734 0.061799984 0.079827584 -0.03293286 -0.014748399 -0.099416666 0.06476159 -0.05091161 -0.10389522 -0.031213162 -0.012209663 0.06468507 0.048030782 0.018410994 0.025453582 -0.06361545 0.05437345 0.023727553 -0.06263246 0.0084346235 0.016123675 0.03346673 -0.012885498 -0.008464858 -0.0011239122 -0.0069926167 -0.005205741 -0.02002196 -0.040685438 -0.02633058 0.008474045 0.06641367 0.105510555 0.043671306 -0.034076456 0.0816773 -0.02329284 0.07702514 0.0010180465 -0.117894195 0.016606618 0.038975887 -0.056624416 0.024907202 0.06368673 -0.013681497 0.0011232276 -0.020697951 0.016827319 0.0799573 0.10577371 0.07603534 -0.063304245 -0.053637587 -0.022001578 -0.14167209 -0.027966121 -0.016163222 0.06684095 -0.037535526 -0.030293044 0.07649242 -0.02992537 -0.019687153 0.020200009 -0.0007478386 0.01771482 0.025426742 -0.00045111397 -0.05245661 0.017152412 -0.02485045 0.0025858842 0.019610541 -0.017414154 -0.00032280054 0.088557474 0.043274254 -0.0772796 0.045319457 -0.046170335 0.038410854 0.03549377 0.06617176 0.043200735 -0.0074844416 0.0644752 -0.003898914 0.0032524995 0.00047739007 -0.0045174677 -0.07319446 -0.086216345 -0.0042675836 -0.038646918 -0.04167414 -0.09735253 0.027869094 0.02201868 0.010502036 0.04747833 0.0034928038 -0.035408743 -0.009184063 -0.01043391 -0.01625519 0.038765933 0.03809967
HP:0002019 0.03888795 0.035613745 -0.092852816 0.060289025 -0.044395182 0.019204289 0.009165766 0.0064987475 -0.008213535 -0.00032876493 0.06346473 -0.055085573 0.05243033 -0.023902373 0.040626474 -0.024832763 0.04313763 -0.05102694 -0.07082435 0.040990792 0.012207865 0.066645615 0.0796554 -0.026570907 -0.016590636 -0.09997355 0.05988325 -0.04973547 -0.10583369 -0.034572262 -0.015604446 0.06268832 0.043946337 0.018778361 0.021166401 -0.05979009 0.059212413 0.025404518 -0.06122571 0.00932756 0.019135522 0.03054904 -0.016671667 -0.010908332 0.000747594 -0.0040137563 -0.005296713 -0.01502556 -0.04387107 -0.022363547 0.002615289 0.0683383 0.101228945 0.043667033 -0.035704333 0.08730943 -0.02682116 0.07940585 0.0014717928 -0.11946918 0.018286575 0.035481147 -0.050658636 0.023198359 0.06007333 -0.015411471 0.0067226673 -0.020581651 0.019444278 0.08167851 0.103121206 0.07204923 -0.0600242 -0.05515181 -0.027186338 -0.14911409 -0.023368059 -0.015182872 0.065447435 -0.03674946 -0.028475512 0.07833543 -0.03129364 -0.016264481 0.015750822 -0.0036262225 0.01476 0.019339018 -0.0027780253 -0.054667123 0.016351908 -0.02217578 0.0008281141 0.021829203 -0.017725185 -0.0034351128 0.091121666 0.043944903 -0.07432971 0.043349307 -0.048799958 0.044126865 0.035282467 0.06570785 0.043563835 -0.0075318017 0.07065895 -0.006485887 -0.004405554 0.002018025 -0.0033410215 -0.07222754 -0.08086158 -0.0007139309 -0.041035134 -0.043730333 -0.09540642 0.029519407 0.016770216 0.010379461 0.050179448 0.0026334124 -0.032871906 -0.0075047985 -0.010214146 -0.012107742 0.04374063 0.04087537
HP:0000939 0.02549245 0.020650117 -0.057421178 0.038168523 -0.028128488 0.013222459 0.00606317 0.0016306073 -0.0026117424 -0.0024412218 0.044341072 -0.033075936 0.03311922 -0.012837502 0.02967281 -0.020916147 0.026578112 -0.033125207 -0.044379037 0.032958627 0.0068194387 0.038531754 0.048728768 -0.016681071 -0.008248497 -0.06384743 0.04270418 -0.034083698 -0.071783885 -0.022526935 -0.008325639 0.046527945 0.030355688 0.013021354 0.016216548 -0.03983168 0.037786953 0.019678913 -0.042880204 0.0068050753 0.011077826 0.022487292 -0.01288613 -0.0077429335 -0.004049675 -0.0027817786 -0.0074207606 -0.014221687 -0.027076459 -0.0120653715 0.0072573395 0.04473253 0.06593755 0.035804782 -0.0284093 0.053970616 -0.014238878 0.049002923 0.0012275298 -0.076011375 0.012687294 0.025453521 -0.03968074 0.017107606 0.04435662 -0.012764895 0.0034821068 -0.017365552 0.01472333 0.054618653 0.06756677 0.048560552 -0.041055936 -0.034727924 -0.01970482 -0.099538594 -0.018686121 -0.006249513 0.04758393 -0.024282468 -0.015702482 0.053622197 -0.023459353 -0.013857559 0.0072961235 0.0002700953 0.013307384 0.016428046 -0.004092533 -0.03454614 0.014908425 -0.017614983 0.0013947717 0.00942608 -0.014000521 0.0017315012 0.063432105 0.028377198 -0.050902534 0.025677865 -0.035040613 0.024813803 0.02633092 0.039420266 0.02881709 -0.0026679246 0.043322064 -0.007220387 0.002729824 0.0019807352 0.00116904 -0.047418494 -0.059594266 -0.0031774386 -0.02779339 -0.024519945 -0.060507953 0.022827193 0.010216244 0.0067249923 0.03746482 -0.0001560706 -0.02365271 -0.008529266 -0.010800366 -0.010273013 0.026078941 0.02858179
HP:0000023 0.025489587 0.025971446 -0.06915092 0.041733775 -0.035138626 0.012437898 0.0041312487 0.0029595075 -0.0043503083 0.00026416735 0.047632903 -0.041746203 0.03574209 -0.018744228 0.032999106 -0.016761415 0.02915878 -0.03432646 -0.05170164 0.03313554 0.011372407 0.048059165 0.058216296 -0.019900994 -0.010985986 -0.07548975 0.04948214 -0.03840785 -0.07914818 -0.022443857 -0.015750201 0.046483513 0.03180819 0.014342937 0.018134179 -0.045177538 0.04345994 0.018691467 -0.046317637 0.004176559 0.012452207 0.026311887 -0.006736983 -0.010820264 0.0026478786 -0.005481631 -0.0015846723 -0.012935785 -0.026956907 -0.019718383 0.006699468 0.0482937 0.07730712 0.03821307 -0.027101424 0.06545749 -0.014716171 0.05323601 -0.0023034161 -0.08499504 0.013992996 0.02877816 -0.03657769 0.01981342 0.04437144 -0.00900855 0.00461827 -0.017885031 0.013651343 0.062351268 0.07825409 0.058126856 -0.047812473 -0.043651525 -0.018598473 -0.10818989 -0.021680372 -0.0103391195 0.049726665 -0.025949052 -0.025331194 0.060594674 -0.026663134 -0.010710794 0.0103059085 1.3027531e-05 0.01565617 0.013631223 0.0015932407 -0.039685935 0.012698545 -0.02296772 0.0042661885 0.01642822 -0.014443366 -0.0034643628 0.06548973 0.033776652 -0.059236683 0.032715324 -0.03381898 0.029694123 0.02923277 0.04819156 0.0295578 -0.008703455 0.04815792 -0.0032543254 -0.0018750542 0.0017352303 -0.0056334888 -0.051452883 -0.060603444 -0.0016303931 -0.028959595 -0.032119986 -0.070228316 0.022430511 0.015033325 0.008679023 0.03883209 -0.0017335331 -0.026049396 -0.0084142 -0.009443985 -0.009277115 0.02973973 0.026023252
HP:0000819 0.030759798 0.03056726 -0.08860941 0.057285253 -0.03941984 0.013029018 0.01056245 0.0047905403 -0.006815187 -2.1135935e-05 0.057711314 -0.048730325 0.052725907 -0.025353309 0.037212055 -0.02274981 0.044586703 -0.044391125 -0.066387475 0.03829219 0.008234763 0.0619566 0.06914391 -0.025520882 -0.015512392 -0.09505199 0.06152114 -0.046644602 -0.098385625 -0.031661883 -0.017928123 0.06139796 0.047338378 0.014714524 0.020430617 -0.05682331 0.05609958 0.023690835 -0.06416359 0.0062078675 0.01653656 0.029265974 -0.015926495 -0.009368053 -0.0033449978 -0.00730806 -0.008191842 -0.015826758 -0.03843304 -0.023797298 0.0066160075 0.05823022 0.10106438 0.047461588 -0.035255678 0.08519863 -0.024784485 0.071988896 0.00083921856 -0.10774256 0.020797221 0.035958022 -0.053281188 0.025702491 0.06465382 -0.013010141 -0.0005066502 -0.016409012 0.019728404 0.07677912 0.09796124 0.07388025 -0.061883584 -0.05436498 -0.023438724 -0.13642724 -0.02175379 -0.010370193 0.066136226 -0.031043157 -0.0266573 0.078709856 -0.0317185 -0.015835878 0.014339101 -0.004574178 0.018989347 0.0185889 0.0008362603 -0.051809132 0.021456253 -0.027505744 -0.0012920051 0.01944195 -0.013245722 -0.0010815486 0.08557649 0.037389778 -0.07026354 0.0412172 -0.0515748 0.04173169 0.034783643 0.06259005 0.041328065 -0.011419338 0.06826135 -0.0073970174 -0.000646787 0.00044542307 -0.0059235855 -0.0643305 -0.08287457 -0.00041642238 -0.03494832 -0.04022627 -0.09288661 0.031774614 0.015186478 0.015642317 0.05025144 0.0015706728 -0.036633454 -0.0044608684 -0.016087873 -0.012326486 0.035559848 0.033330273
HP:0001288 0.032933045 0.032803893 -0.092860356 0.059952125 -0.04385817 0.020186892 0.009173631 0.0011867306 -0.004358146 -0.0046948898 0.062634386 -0.05411714 0.055042036 -0.026252205 0.04259144 -0.025934221 0.044745967 -0.04854611 -0.0641165 0.04004461 0.008634952 0.066280216 0.07877621 -0.033032477 -0.018754225 -0.09627163 0.059945267 -0.05325502 -0.10049015 -0.0303491 -0.0151560865 0.061718013 0.04795103 0.014230107 0.026291348 -0.06236206 0.05202556 0.021748636 -0.062682934 0.007816455 0.02063911 0.031096658 -0.013209069 -0.010104233 -0.0011567707 -0.006372359 -0.0069875363 -0.017340662 -0.043727204 -0.026017828 0.008699693 0.061564807 0.10222647 0.044731006 -0.038899582 0.08279158 -0.022524996 0.079042904 -0.0024755627 -0.11534698 0.022208832 0.042638827 -0.056685206 0.028476797 0.06604339 -0.017797291 0.0005351073 -0.019786935 0.015696997 0.08162794 0.102649786 0.07592798 -0.059974667 -0.05461055 -0.026399493 -0.14359294 -0.03036265 -0.010837175 0.068042085 -0.032495294 -0.028399792 0.081446126 -0.031857144 -0.014377184 0.01798967 -0.0059317737 0.015287572 0.019561956 -0.0049227434 -0.056140043 0.022501282 -0.030164775 -0.0030619598 0.023212874 -0.020929856 -0.0021908458 0.0932935 0.042568117 -0.07552045 0.040913176 -0.053841062 0.03882027 0.030669674 0.06094747 0.043646116 -0.008178234 0.06623385 -0.006021549 0.0011323916 -0.003518197 -0.0040535177 -0.06821959 -0.087666705 -0.0022558058 -0.042878643 -0.037997395 -0.09436806 0.030086178 0.02021658 0.014286741 0.054214004 0.0023081207 -0.034296136 -0.008191799 -0.014403433 -0.018622909 0.041728407 0.039404348
HP:0001387 0.035812724 0.03421719 -0.0865233 0.053844295 -0.03924289 0.017417835 0.011523583 0.004079756 -0.002749741 -0.0038419536 0.056251258 -0.047921322 0.049852174 -0.023231281 0.03524282 -0.027897807 0.037221316 -0.04803798 -0.06767025 0.03864123 0.013566149 0.060499445 0.06968626 -0.03144538 -0.015995825 -0.0932041 0.05767893 -0.053496458 -0.100572266 -0.034489732 -0.015294425 0.060018998 0.042589433 0.01638654 0.019036803 -0.05412211 0.050216276 0.023255352 -0.059125524 0.0022705381 0.016361369 0.03398022 -0.01565359 -0.010370666 8.6528176e-05 -0.0067232316 -0.0044206916 -0.017707255 -0.03517776 -0.022829166 0.006776948 0.061200682 0.09984402 0.041846085 -0.031068798 0.080004774 -0.021062808 0.074192375 -0.002196531 -0.11264617 0.01763034 0.039521478 -0.052391995 0.027419548 0.057206962 -0.014718666 0.0036749707 -0.021035522 0.020417294 0.07402711 0.09914356 0.07021683 -0.062531725 -0.054649845 -0.027241878 -0.13455477 -0.026727185 -0.00963256 0.06499416 -0.03567867 -0.030371869 0.07608997 -0.03434746 -0.01300969 0.013307751 -0.0003852352 0.014552106 0.020436965 -0.0056370674 -0.052935664 0.02085012 -0.027037285 -0.0017849562 0.018330934 -0.0164225 -0.0016786526 0.080467194 0.035725247 -0.07323617 0.044527646 -0.048483178 0.042813063 0.029614374 0.06175283 0.040310964 -0.004601083 0.065385744 -0.005826764 0.0024611508 -0.0013566457 0.00062577444 -0.07016465 -0.081898645 -0.0061938027 -0.039828025 -0.040962946 -0.08893158 0.028759208 0.020539772 0.01191299 0.04782806 -0.0019967407 -0.031191735 -0.007504082 -0.013090107 -0.018777864 0.03801867 0.036063295
HP:0002015 0.026722232 0.027375598 -0.07791367 0.04627932 -0.039590552 0.015857486 0.007204132 0.0046313163 -0.0040160194 -0.0035812967 0.051818058 -0.044904843 0.046543427 -0.020008087 0.029917635 -0.025879119 0.03237627 -0.045981944 -0.05718871 0.03693672 0.005999742 0.051104907 0.06291559 -0.022734117 -0.014122815 -0.08147386 0.053973768 -0.04429889 -0.08517662 -0.026216893 -0.012123574 0.055270363 0.04347864 0.016823266 0.017342325 -0.0492632 0.04404665 0.021233063 -0.050362363 0.0054467563 0.015109293 0.024034588 -0.009368637 -0.012660556 0.0033327225 -0.0015148626 -0.0016015806 -0.018081564 -0.035210088 -0.021413093 0.00604199 0.05609784 0.08638138 0.04107069 -0.030961547 0.07219481 -0.017714245 0.0647993 0.003218957 -0.09680788 0.016265268 0.034921505 -0.042876024 0.023733176 0.054001134 -0.017703984 0.004631665 -0.016854951 0.014195413 0.063599035 0.09196222 0.062756374 -0.055115964 -0.048634 -0.022951815 -0.12375925 -0.019725453 -0.011481346 0.056762274 -0.030172652 -0.026444793 0.068036176 -0.024550825 -0.016442258 0.010702617 0.0008664774 0.014456723 0.016735531 -0.0006267787 -0.04745035 0.014089734 -0.021726029 0.0043205596 0.012667018 -0.017615456 0.0002965068 0.07764887 0.030582236 -0.06448399 0.03540614 -0.045463238 0.0318919 0.027895784 0.05098476 0.03782778 -0.0032493223 0.054168064 -0.0067292163 -0.00354365 -0.0019277494 -0.0020009538 -0.060751077 -0.07331895 -0.0029573955 -0.035294086 -0.033669326 -0.08298636 0.026707835 0.016336154 0.013172728 0.042837933 0.002644535 -0.025136009 -0.0067701344 -0.013981797 -0.016348444 0.031610023 0.030856354
HP:0001999 0.0331394 0.030091114 -0.088876486 0.058419917 -0.04077472 0.015521114 0.008007218 0.006567792 -0.0015184522 0.0006742175 0.057593126 -0.051497564 0.048085555 -0.018660024 0.03776357 -0.028358199 0.042459756 -0.043992557 -0.0613563 0.038908716 0.007328222 0.06116224 0.06855791 -0.026375718 -0.011977586 -0.09511602 0.058703434 -0.048366092 -0.100906886 -0.033176962 -0.0154600255 0.063147545 0.04786319 0.017677454 0.01834993 -0.058633175 0.055244915 0.020370798 -0.05833791 0.006402119 0.017673068 0.030197348 -0.013908218 -0.014563648 -0.003181602 -0.009020535 -0.009133155 -0.014334914 -0.037102424 -0.01982058 0.0067597562 0.05857364 0.100429885 0.04216496 -0.038385626 0.08227318 -0.024706053 0.074012846 -0.00049163273 -0.113478094 0.019899463 0.038542654 -0.052203484 0.023410028 0.06405758 -0.011865953 0.0002990081 -0.018628038 0.0209443 0.0755971 0.101780504 0.073661655 -0.056018516 -0.05042217 -0.02052867 -0.13490568 -0.02254002 -0.012938227 0.063621566 -0.03622924 -0.023762736 0.07267007 -0.029966904 -0.014830809 0.016949251 -0.0070138336 0.020127472 0.023971718 -0.001539108 -0.051493723 0.02076512 -0.028472375 -0.002881433 0.017534886 -0.019052574 -0.0025780725 0.08264086 0.035627373 -0.06936998 0.04440057 -0.048459396 0.04110406 0.03487541 0.057349302 0.03528578 -0.0073749437 0.065107904 -0.005649856 -0.0045576533 0.0019563485 -0.0051974547 -0.06530438 -0.08000542 -0.0044634864 -0.041598357 -0.0351518 -0.08799775 0.025812106 0.018878609 0.009607988 0.04605369 0.0026950648 -0.030008573 -0.004838953 -0.0152314445 -0.016945893 0.038254566 0.039559424
HP:0000545 0.0348202 0.03369584 -0.09637834 0.0631271 -0.046920333 0.01853251 0.014878531 0.00095260254 -0.007284896 -0.0019990068 0.06699848 -0.058268763 0.057278056 -0.024019554 0.04225452 -0.027171154 0.04420744 -0.04975643 -0.0729274 0.050309926 0.0134702725 0.062803425 0.08164581 -0.029935693 -0.015246622 -0.10525902 0.066507176 -0.056071058 -0.110302985 -0.03366852 -0.016612578 0.069282584 0.05120406 0.0130815385 0.021134999 -0.06663819 0.059375137 0.024141422 -0.06830788 0.0038737028 0.01586694 0.030039983 -0.015186707 -0.014977675 -0.003101029 -0.0081586 -0.0070946356 -0.018910237 -0.04471051 -0.023928907 0.0037986513 0.06948751 0.10735873 0.048834566 -0.039840493 0.08850321 -0.023448238 0.083012275 -0.003155875 -0.1256253 0.01897428 0.041659474 -0.05673956 0.024305621 0.06514176 -0.019229729 0.00022868041 -0.022246042 0.023844982 0.08656046 0.110617764 0.081781946 -0.063076176 -0.05680826 -0.024975253 -0.1567034 -0.026229732 -0.016242513 0.073653586 -0.03823467 -0.032741662 0.08155051 -0.035727575 -0.019177122 0.017511562 -0.0053534727 0.01939746 0.020614369 -0.0063753864 -0.057630982 0.024397861 -0.030613026 -0.001588599 0.023548936 -0.021394143 0.0021863098 0.09680919 0.041174214 -0.078971535 0.046061285 -0.049577598 0.04174126 0.035858028 0.06879147 0.04091207 -0.006230208 0.0730669 -0.0070340303 -0.00017902387 -0.00072602084 -0.0013539981 -0.07133211 -0.09199448 -0.0011152992 -0.043717735 -0.04181208 -0.100773096 0.035261188 0.024255766 0.013027649 0.050247364 0.003804411 -0.038898498 -0.007973338 -0.012828494 -0.016810043 0.041241538 0.044246133
HP:0000938 0.025833694 0.025744088 -0.068800054 0.04636337 -0.03497735 0.008577094 0.008327909 0.006044614 -0.0049836547 -0.002629158 0.044269525 -0.041973207 0.0392286 -0.017984537 0.025733873 -0.017072644 0.028887488 -0.037079014 -0.05300053 0.036224484 0.008214266 0.04212434 0.053038426 -0.023725383 -0.009847448 -0.07514254 0.048588693 -0.039518178 -0.07960616 -0.021760453 -0.012500635 0.04374416 0.03355785 0.0115581285 0.01904656 -0.041420657 0.044372723 0.021876551 -0.044972245 0.0032962905 0.014475297 0.02214727 -0.012920019 -0.0061861067 0.0032603252 -0.004077461 -0.0074190814 -0.014717602 -0.03261931 -0.012673484 0.0055186297 0.044337243 0.07366455 0.03488286 -0.030416185 0.06348331 -0.015461295 0.058580466 0.0030178044 -0.08713847 0.011056519 0.032336917 -0.03629279 0.017489484 0.050252564 -0.012076034 -0.000651106 -0.017366987 0.014765015 0.05906256 0.07661497 0.053698912 -0.04229157 -0.036959782 -0.0189589 -0.111028746 -0.020063926 -0.008357776 0.049575552 -0.024355432 -0.023199152 0.05929484 -0.026610743 -0.010860317 0.013963905 -0.0024222452 0.009214615 0.013598765 -0.002873375 -0.041726317 0.018145401 -0.019607414 0.0036192497 0.010404031 -0.016652763 0.0024736188 0.06869417 0.028474178 -0.06022822 0.03489794 -0.03964565 0.031196589 0.024274075 0.045432277 0.031035203 -0.005989385 0.049396582 -0.0027431506 0.00020845265 0.002215456 0.0015394115 -0.048913844 -0.06162395 -0.002760136 -0.029472874 -0.029799338 -0.06725089 0.017951576 0.013057366 0.0060775294 0.033843264 0.0007009637 -0.026167346 -0.002769657 -0.0077881664 -0.011248882 0.028571082 0.030107038
HP:0002664 0.038200576 0.031352837 -0.08813983 0.055408474 -0.04381029 0.020033807 0.013554322 0.002283917 -0.0023912443 0.001888798 0.05745137 -0.04961321 0.04939757 -0.02516426 0.039001778 -0.023488902 0.038345736 -0.047555536 -0.069513075 0.039259452 0.011502803 0.059921507 0.07169472 -0.025606725 -0.014174094 -0.09886088 0.058709815 -0.05246773 -0.10314119 -0.032941543 -0.014551845 0.059534296 0.04607544 0.016764162 0.020853102 -0.05794596 0.0515485 0.027370648 -0.059839513 0.009328639 0.016568342 0.033659294 -0.009997102 -0.013159483 0.0012984845 -0.0035532147 -0.0047673387 -0.018477064 -0.04131282 -0.020252232 0.0046008877 0.06604235 0.09892528 0.04326225 -0.03650369 0.08159409 -0.024117433 0.07733152 -0.0017406918 -0.11546625 0.019649334 0.037347324 -0.054341655 0.026837429 0.06223945 -0.015680343 0.0029349464 -0.018387115 0.017897267 0.079243645 0.09990429 0.07711259 -0.062525384 -0.054529313 -0.026096271 -0.14616434 -0.030057652 -0.009070469 0.063186616 -0.035593983 -0.02944767 0.07387048 -0.035897464 -0.01429284 0.014434014 -0.006662423 0.01933646 0.024520405 -0.000527381 -0.054822292 0.02207528 -0.027986728 0.0031353792 0.020211807 -0.016275264 -0.0024776317 0.09013918 0.04162857 -0.07673747 0.044996668 -0.04905152 0.04101737 0.032680698 0.06376176 0.04161333 -0.0039385115 0.07090722 -0.0036834916 0.00044745335 -0.0015367076 -0.0023818195 -0.0667479 -0.08607406 -0.0006048484 -0.040834315 -0.037385873 -0.090835184 0.025063854 0.016393002 0.010671771 0.04586331 -0.0031937696 -0.033477176 -0.008304369 -0.016062632 -0.011367766 0.040839445 0.03790896
HP:0001324 0.0344235 0.029008755 -0.08514211 0.052189197 -0.03742116 0.01606995 0.011389722 0.0035322972 -0.006353554 0.002064204 0.052256946 -0.045385227 0.046691123 -0.02018322 0.03522838 -0.023972547 0.043044217 -0.046273407 -0.06274311 0.03741277 0.008801239 0.060702085 0.06933297 -0.027291108 -0.010939913 -0.08972661 0.05804104 -0.0510958 -0.09450805 -0.030684028 -0.013361702 0.06256622 0.043098822 0.01706655 0.020166498 -0.060019236 0.052633386 0.01927256 -0.057047386 0.007512467 0.013002018 0.02644793 -0.012704118 -0.012569659 0.0036470073 -0.0053609824 -0.0064426847 -0.014329633 -0.03840768 -0.021384895 0.007433322 0.05800929 0.100545935 0.047104 -0.034450166 0.08045606 -0.020940764 0.07004948 0.0009882813 -0.11159812 0.017195478 0.03716254 -0.050536387 0.024145046 0.06344764 -0.017000865 0.0011733226 -0.014889351 0.021440765 0.075166985 0.099450275 0.073734544 -0.062339894 -0.053617578 -0.025924655 -0.13436912 -0.02768261 -0.014986379 0.0650384 -0.0297814 -0.029139228 0.0744029 -0.03402278 -0.01256248 0.019136326 -0.00074268354 0.013727538 0.016300514 -0.0064436374 -0.049141187 0.022513246 -0.023050943 -0.002915732 0.016379986 -0.013126377 -4.2959808e-05 0.0866276 0.036343217 -0.07395998 0.04404671 -0.043623447 0.03995468 0.034887522 0.058702275 0.035848793 -0.005032249 0.064847715 -0.0061940914 0.00032401597 -0.00022204107 0.00033376217 -0.06971763 -0.07619628 -0.0063748066 -0.041753463 -0.040257234 -0.09097451 0.026063902 0.018611025 0.009925599 0.04658909 -0.0033377577 -0.033231 -0.0038841667 -0.009457211 -0.016607264 0.041965343 0.03826422
HP:0002615 0.022976577 0.023333423 -0.06397431 0.03772566 -0.027012505 0.008942576 0.0055768657 -0.0013976155 8.546931e-05 -0.004051835 0.039916042 -0.035916176 0.03431736 -0.012999074 0.029987121 -0.018961333 0.025375487 -0.032648332 -0.045205645 0.030155787 0.0063986476 0.044294897 0.051672388 -0.018873451 -0.011482062 -0.0707342 0.045661222 -0.038388096 -0.069511674 -0.02095558 -0.013028008 0.046209298 0.028686427 0.013728323 0.017397847 -0.03839121 0.03909973 0.017522363 -0.04190609 0.0048217503 0.0101007745 0.023194076 -0.009752582 -0.00696107 0.0001418266 -0.0011390084 -0.00048376495 -0.013095976 -0.03090739 -0.016049754 0.004974333 0.045637235 0.07401897 0.03331648 -0.027135398 0.055523336 -0.013662849 0.050748263 0.0022939583 -0.074554905 0.0105460435 0.026268685 -0.03556013 0.015223982 0.046659242 -0.012727227 0.0057028667 -0.010573339 0.010780104 0.051845584 0.06956119 0.04915109 -0.04174869 -0.038017575 -0.016726924 -0.100327656 -0.017394487 -0.0074582747 0.04300634 -0.02625262 -0.019081874 0.05411962 -0.022491943 -0.009510075 0.01386625 -0.0012120428 0.010700099 0.011627345 -0.002274449 -0.038420934 0.017146671 -0.016428752 0.0037634738 0.009902337 -0.009229977 -7.48608e-05 0.057515606 0.023900395 -0.048724413 0.030471278 -0.030273482 0.030222263 0.025981637 0.038928054 0.027136263 -0.006271532 0.045964107 -0.0050600646 0.0016199119 -0.000957807 -0.003095795 -0.048783425 -0.054877914 -0.005211143 -0.02858689 -0.027700182 -0.062408756 0.02234812 0.013856537 0.00784634 0.037576184 -0.00016066639 -0.022119818 -0.0070693423 -0.009789946 -0.0096987 0.031063907 0.026588151
HP:0000790 0.026853673 0.026145646 -0.067073435 0.041797955 -0.032117013 0.011605685 0.011919165 0.0014669909 -0.0064559514 -0.0023066301 0.04831446 -0.042740967 0.03755581 -0.016999755 0.027256303 -0.018204434 0.029341944 -0.035567194 -0.048228294 0.031804487 0.0089174155 0.04915009 0.05939436 -0.025161568 -0.0105248345 -0.07558402 0.049545463 -0.036513377 -0.08040079 -0.02669964 -0.01170966 0.04674195 0.033157963 0.011065137 0.015758676 -0.045879185 0.044457078 0.017415462 -0.049679875 0.001175466 0.0098135 0.023722371 -0.012925036 -0.008516961 0.0016558203 -0.00669904 -0.0008317532 -0.013412033 -0.030836627 -0.020855045 0.0010778089 0.047304627 0.0794795 0.035807196 -0.02849686 0.063796945 -0.021483455 0.057643685 0.0010336405 -0.08990319 0.016326137 0.030956214 -0.040866934 0.020098336 0.04605447 -0.0084931 0.005967419 -0.015385033 0.013080536 0.06390277 0.08061146 0.055007264 -0.04720718 -0.04083693 -0.01732973 -0.10904683 -0.02351803 -0.007938381 0.051210575 -0.029665506 -0.026022682 0.058290754 -0.021035606 -0.013460155 0.010580294 -0.004084652 0.012314091 0.019883161 -0.002216167 -0.041273393 0.015128782 -0.019713853 6.616612e-05 0.011025038 -0.010389531 -0.0035012732 0.07061484 0.029819097 -0.058848783 0.035485946 -0.03541095 0.035450995 0.026276076 0.048290625 0.03305789 -0.0044617723 0.050372656 -0.0045351894 -0.0019462345 0.00104895 -0.0012793913 -0.0535476 -0.06413563 -0.0011522842 -0.029880388 -0.029080886 -0.06863021 0.023416752 0.014914999 0.008290994 0.040598277 -0.0004894804 -0.027448652 -0.0057025673 -0.011091335 -0.014236828 0.03360075 0.032597158
HP:0002098 0.025695339 0.023402385 -0.060736503 0.044864886 -0.03050865 0.012587657 0.00463411 -0.0004916732 -0.004238885 -0.0034664825 0.04633796 -0.03371951 0.033571724 -0.014475495 0.031867977 -0.021622082 0.030905617 -0.032832783 -0.04869564 0.02723883 0.0052970215 0.045509808 0.056798868 -0.02059015 -0.007465858 -0.069274984 0.045022633 -0.038346022 -0.06999783 -0.026944915 -0.010005363 0.04668821 0.032833576 0.010220985 0.018340934 -0.043808635 0.03782652 0.015453367 -0.048809957 0.00261368 0.00975266 0.02641188 -0.006980837 -0.011899792 0.00030578763 -0.0044781794 -9.040147e-05 -0.008482847 -0.03197616 -0.012587064 0.0034179937 0.048328422 0.07440442 0.031114696 -0.022560133 0.062254168 -0.017488511 0.057399064 0.0018415382 -0.08210768 0.016388569 0.02927966 -0.038542427 0.019789863 0.045646373 -0.010152733 0.0056797424 -0.015392557 0.01373293 0.05764446 0.07414634 0.050439853 -0.044565327 -0.03774448 -0.016662128 -0.10071276 -0.018665282 -0.011487999 0.04399035 -0.024514092 -0.019675637 0.053119313 -0.021604612 -0.010046367 0.0139691075 -0.0062986026 0.0090770805 0.019196387 -0.0008359649 -0.03766633 0.013467711 -0.01955602 0.0004717357 0.012718698 -0.014384041 -4.312012e-05 0.06567959 0.030805446 -0.051100638 0.03330418 -0.039070133 0.03230514 0.020680353 0.04534857 0.026027992 -0.0070141144 0.052317094 -0.0044434164 0.0013807581 -0.0012637393 -0.002136089 -0.050111186 -0.055953506 -0.001342167 -0.032489687 -0.02760931 -0.07141505 0.02413393 0.01731803 0.0100249285 0.034468986 -0.0030128725 -0.026491258 -0.0070355553 -0.006751913 -0.008720899 0.025675366 0.029770413
HP:0007018 0.032028854 0.030553935 -0.077093266 0.053563785 -0.03272073 0.016021062 0.009231601 0.004644408 -0.004307671 0.00047925295 0.052897353 -0.044217985 0.04316226 -0.023431594 0.033907477 -0.025231637 0.036788184 -0.04521489 -0.060151894 0.038135592 0.013982366 0.05503925 0.06173821 -0.024672583 -0.015944881 -0.08581318 0.05157386 -0.047528856 -0.08700773 -0.030273298 -0.015570566 0.05545753 0.037139457 0.01601018 0.021563323 -0.05292168 0.04886587 0.024010198 -0.05169811 0.006797353 0.01732496 0.025249269 -0.014636916 -0.014021827 0.0004311606 -0.0041307607 -0.007484654 -0.013147057 -0.036995973 -0.021488855 0.004613193 0.058443084 0.089170516 0.043795314 -0.030854775 0.0698006 -0.023545563 0.068805754 0.0038656408 -0.10031267 0.01608931 0.036780205 -0.04421202 0.0224953 0.05498862 -0.0139530795 0.004968305 -0.01950712 0.013854596 0.0708111 0.09283021 0.06318535 -0.05697813 -0.04370191 -0.024362596 -0.12753582 -0.023036925 -0.013175299 0.057874497 -0.028179977 -0.021193165 0.06764448 -0.028103733 -0.01765332 0.010899827 -0.0047047045 0.018306434 0.021881469 -0.004791233 -0.042314257 0.017407091 -0.021000944 -0.0028850632 0.018766008 -0.017232455 0.0025364847 0.07564824 0.035024997 -0.064579554 0.03943155 -0.04536317 0.032665476 0.027762031 0.050296776 0.033056922 -0.007990177 0.060084578 -0.0011632779 -0.003596679 0.0022871257 -0.001733886 -0.057950698 -0.06972326 -0.0016054637 -0.031909768 -0.032900386 -0.08479398 0.022810236 0.015666239 0.006858592 0.045762084 -0.0022810139 -0.0323556 -0.008449885 -0.008524983 -0.012000073 0.03489413 0.030210333
HP:0001596 0.024648584 0.02959145 -0.07073955 0.050602026 -0.03795743 0.011849613 0.0044753836 0.0011270738 -0.0021697541 0.0014807968 0.04747364 -0.045096565 0.043703955 -0.020748124 0.03301753 -0.019115483 0.030504659 -0.043278012 -0.0536751 0.038335584 0.010538539 0.052431326 0.057014745 -0.026918264 -0.015645612 -0.079306304 0.052699972 -0.03832435 -0.08511902 -0.027332332 -0.0144185955 0.04940582 0.03648838 0.014171341 0.0211883 -0.045921806 0.045457568 0.017039781 -0.04828874 0.0011321253 0.016304266 0.023127127 -0.008065013 -0.00962691 0.0019743838 -0.004338309 -0.003246472 -0.0104033705 -0.031312842 -0.019257795 0.0015498248 0.052895866 0.078778684 0.038680214 -0.032092776 0.06598709 -0.022070805 0.06343109 0.0025902237 -0.09194965 0.014129855 0.027616668 -0.04029499 0.0216948 0.053583298 -0.010101201 0.0036356233 -0.012680638 0.017928954 0.060442958 0.07912677 0.057132747 -0.049253292 -0.04125706 -0.016696224 -0.11309827 -0.02108705 -0.010258252 0.05030016 -0.029536864 -0.026748082 0.06472572 -0.029251937 -0.014898606 0.012592398 0.00024345254 0.015126957 0.017764732 -0.00073360134 -0.0413164 0.013736031 -0.02277378 0.0032896055 0.0122028245 -0.010013693 -0.00044239208 0.067971386 0.03305163 -0.0626849 0.0315994 -0.036686026 0.030176705 0.029022397 0.047807507 0.033299148 -0.0047927364 0.053473014 -0.004908481 -0.0027069307 -0.0037763629 -0.002279212 -0.053776566 -0.06586703 -0.004997543 -0.03568751 -0.029846366 -0.07219857 0.02235517 0.017833179 0.00675641 0.040819872 0.00052867783 -0.029319704 -0.0031666097 -0.012929107 -0.00918277 0.032351203 0.02710663
HP:0000989 0.029377019 0.027377373 -0.08051187 0.051679384 -0.034698125 0.018345391 0.008361907 -0.0004421508 -0.008055017 0.0005551578 0.04773935 -0.04707139 0.04611657 -0.016300716 0.03717403 -0.026673641 0.03412301 -0.046964742 -0.054866828 0.035844922 0.01223348 0.050276447 0.06744979 -0.02299131 -0.016777564 -0.08953824 0.050415352 -0.046020336 -0.08642665 -0.025392251 -0.011237459 0.05813827 0.042930916 0.012878363 0.021399776 -0.054067243 0.048546903 0.018004483 -0.05797375 0.0015337021 0.014703963 0.030102076 -0.008588991 -0.013604772 0.0015525367 -0.0071251616 -0.0067625456 -0.011149875 -0.03592911 -0.017038316 0.00836541 0.058826946 0.09226408 0.03981167 -0.03314103 0.075549476 -0.02376037 0.067144565 -0.0007478274 -0.10300754 0.017014973 0.036458667 -0.048805237 0.022591658 0.052182656 -0.011358833 0.0019840337 -0.015481118 0.016441079 0.06955218 0.089804895 0.06733964 -0.0522602 -0.045230526 -0.023341335 -0.12425368 -0.023749683 -0.010428399 0.058862902 -0.033565275 -0.02803343 0.071164444 -0.024318619 -0.011093905 0.012272931 -0.003576933 0.015323335 0.015631922 -0.0027872028 -0.048544932 0.018553926 -0.02493699 0.0037388839 0.018495053 -0.012929852 0.0006242716 0.07578917 0.034852203 -0.06487824 0.035155516 -0.046685718 0.039560866 0.026490606 0.05644022 0.0365067 -0.008078784 0.05664374 -0.0077592656 -0.004068676 -0.0025660207 8.911621e-05 -0.061016973 -0.07097208 -0.0035294183 -0.037421763 -0.032945953 -0.08195783 0.029486053 0.020513639 0.01481026 0.04354838 0.0033788488 -0.030390333 -0.006991458 -0.01418702 -0.012251598 0.031458054 0.032414142
HP:0000083 0.028859649 0.029750949 -0.084965706 0.055913415 -0.03927341 0.01886902 0.008068346 0.00022980364 -0.0038909537 -0.0022760585 0.055757385 -0.04757044 0.045711435 -0.020352712 0.031916127 -0.026838416 0.03547399 -0.045459535 -0.05839693 0.036902394 0.010910677 0.056409825 0.06894251 -0.028537827 -0.013685469 -0.09058039 0.05764406 -0.044337105 -0.09461954 -0.02906637 -0.0130936345 0.057691246 0.044058505 0.017925309 0.01784041 -0.054092646 0.04723251 0.018882928 -0.057626437 0.008946907 0.012110982 0.025606008 -0.015814282 -0.009915951 -0.0011790134 -0.008535054 -0.0016520548 -0.015367388 -0.037380874 -0.019117516 0.008058626 0.059621718 0.0898338 0.042008143 -0.030133627 0.07829483 -0.019520061 0.06816726 -0.00050851726 -0.102436274 0.019234369 0.034637757 -0.04987518 0.018820766 0.059328318 -0.018027179 0.0005532585 -0.014519788 0.01750563 0.06791312 0.09255702 0.06806634 -0.05355262 -0.050347075 -0.024424806 -0.12770441 -0.02669466 -0.008313228 0.056679558 -0.027666487 -0.02925554 0.066603094 -0.02643625 -0.017402682 0.018439595 -0.00054046884 0.013166968 0.02106524 -0.0012902172 -0.04394711 0.018782899 -0.025589624 0.0023679333 0.015744748 -0.01639466 0.0006372722 0.083294645 0.0332496 -0.067692034 0.03762066 -0.042902052 0.033337414 0.029975781 0.059845895 0.03567855 -0.0041966457 0.062067766 -0.003165314 0.00117182 -0.00036366723 -0.002024828 -0.060100928 -0.07523358 -0.0045813406 -0.039603878 -0.03624102 -0.086918846 0.02807275 0.021125998 0.012855475 0.044537593 0.0013592858 -0.031413607 -0.008234702 -0.016362319 -0.014731433 0.036018196 0.03642511
HP:0001276 0.02602971 0.027156059 -0.0624375 0.043679696 -0.02531504 0.014648862 0.004578522 -1.0984499e-05 -0.0014018416 0.00028613207 0.037369218 -0.031389777 0.031761076 -0.012757596 0.024769576 -0.020590374 0.03272109 -0.03495297 -0.04552938 0.026056942 0.006052976 0.039003838 0.05437755 -0.022803677 -0.0072306884 -0.06399954 0.04369408 -0.033035927 -0.07254468 -0.020603986 -0.009071701 0.044285655 0.034142993 0.013612766 0.014066308 -0.043913078 0.03785857 0.019352937 -0.039644442 0.0063890726 0.00884155 0.02382612 -0.0062839054 -0.0056190537 0.0034727445 -0.005988566 -0.00013387667 -0.014663752 -0.028753199 -0.013697498 0.0014398065 0.04412422 0.07008391 0.032594863 -0.028262548 0.060182724 -0.018359527 0.049237736 -0.00095502724 -0.08011813 0.012154578 0.026697181 -0.038052775 0.01399749 0.044745892 -0.013750824 -0.00073059957 -0.012618997 0.015034233 0.05475857 0.07202764 0.048356835 -0.044234984 -0.034818165 -0.0145299 -0.098240905 -0.01793772 -0.010726391 0.047567315 -0.026520262 -0.019810533 0.049649555 -0.021316428 -0.0074150623 0.013321117 -0.0038363496 0.010614788 0.014318999 -0.0007676887 -0.033605352 0.014453903 -0.02149576 0.0035936108 0.013995288 -0.009033056 0.0020843744 0.060947753 0.029642724 -0.0521668 0.029890824 -0.03592682 0.026905084 0.024227137 0.04494982 0.028718254 -0.008010388 0.046950508 -0.0015315552 -0.00033097004 -0.0030650462 0.0002182006 -0.049706984 -0.054107822 -0.0024441758 -0.024463113 -0.023586398 -0.0665954 0.022465132 0.011622156 0.012051611 0.032896962 -0.0012776367 -0.02385027 -0.0053198757 -0.012075662 -0.0073167686 0.023955489 0.023102842
HP:0002960 0.024896959 0.027305003 -0.05992973 0.04340636 -0.032011166 0.01402169 0.008237184 0.00042366935 -0.0056012133 0.0019816086 0.03852418 -0.037799638 0.03938386 -0.016125988 0.029949423 -0.020811051 0.031761736 -0.03400773 -0.045324616 0.03245783 0.010078927 0.041108422 0.05728287 -0.01707364 -0.011814665 -0.06777622 0.047183704 -0.03805977 -0.07359104 -0.020471111 -0.010067675 0.04540401 0.029136365 0.008049542 0.015339638 -0.04400883 0.03943723 0.015977511 -0.04071911 0.0077404077 0.0100168735 0.023159629 -0.0069262 -0.010388556 0.0011225461 -0.0019877008 4.490822e-05 -0.0138123045 -0.032392725 -0.019077688 0.0064583533 0.043963075 0.07312901 0.033208374 -0.029438829 0.0582503 -0.021305477 0.05289256 0.0011743074 -0.07875093 0.015078766 0.027600504 -0.039832845 0.014323451 0.047997516 -0.0089886 0.002453281 -0.01170059 0.014486088 0.05558423 0.07450855 0.053045772 -0.041372254 -0.039790634 -0.021075942 -0.105594166 -0.018354159 -0.0062398077 0.044314336 -0.028130492 -0.018690782 0.054542303 -0.022140624 -0.008695583 0.013829419 -0.005796712 0.00933879 0.01902215 -0.0057878154 -0.03863538 0.014148918 -0.015366903 0.0015975827 0.011435637 -0.013974963 -0.0015938223 0.06056072 0.03293841 -0.057574257 0.032157626 -0.033850625 0.033591393 0.020665206 0.046639048 0.03249256 -0.009098435 0.04647781 -0.005489 0.0031169914 -0.003931256 -0.0041733296 -0.049768277 -0.062277976 -0.0005506559 -0.028299121 -0.029969586 -0.06443716 0.019251365 0.017833361 0.0055559315 0.037957203 -0.0011891468 -0.022122141 -0.0072326674 -0.010824324 -0.011142742 0.031487215 0.028679477
HP:0002093 0.041172504 0.039007142 -0.09683628 0.0655251 -0.04479712 0.01812211 0.012741868 0.004743184 -0.0015658635 -0.0025624074 0.06697216 -0.05376184 0.057031374 -0.025235558 0.044231955 -0.026403027 0.046189625 -0.057171844 -0.0754001 0.044951677 0.0143267065 0.06583 0.08023827 -0.03462429 -0.015307122 -0.10170371 0.06715968 -0.054785464 -0.112385035 -0.033836555 -0.014096164 0.07118765 0.048055384 0.014784714 0.021107681 -0.067545354 0.054834552 0.023180595 -0.06380023 0.007454331 0.019976212 0.030868515 -0.015708582 -0.012083758 -0.0025645562 -0.007565355 -0.0043165577 -0.02155242 -0.04276914 -0.024388378 0.00776171 0.0706658 0.111003436 0.053643446 -0.036224715 0.08650977 -0.025579654 0.080592185 0.00017385981 -0.12290015 0.019749366 0.04314916 -0.05843417 0.028413277 0.065598115 -0.019051772 -0.0006066138 -0.021390785 0.02321213 0.0809875 0.11264791 0.07748771 -0.066333205 -0.061642196 -0.028430305 -0.15007605 -0.03111546 -0.014708545 0.07358726 -0.038793508 -0.03020613 0.08333645 -0.03443617 -0.015242709 0.020351704 -0.0005830503 0.020326847 0.024265086 -0.006342543 -0.052958846 0.024611097 -0.03146886 -0.001266752 0.020568438 -0.017992064 0.002264163 0.092898145 0.041388854 -0.082996026 0.043217763 -0.051410295 0.042532157 0.037753154 0.06312966 0.043505013 -0.010893323 0.0716997 -0.0048325495 0.0022523287 -0.0039601345 -0.0032246718 -0.07167827 -0.086739086 -0.0028858194 -0.039057113 -0.039532345 -0.10460174 0.030450726 0.01720096 0.013531024 0.050134294 0.0011561991 -0.035870332 -0.005549195 -0.01164687 -0.01544727 0.04209205 0.038808316
HP:0001347 0.024177978 0.02697239 -0.07121235 0.043754607 -0.028192706 0.011044922 0.011878085 0.0055616647 -0.0023557225 -0.0034453876 0.045666516 -0.041912235 0.038889714 -0.01711928 0.031825215 -0.020345153 0.031815797 -0.039954487 -0.04962174 0.033194635 0.012258375 0.047991235 0.057137612 -0.018677121 -0.014929757 -0.07394529 0.048917294 -0.041550983 -0.07958513 -0.024889017 -0.0086800335 0.048640426 0.038864274 0.008111207 0.013544823 -0.05012387 0.044309076 0.019107407 -0.04439927 0.005086933 0.015845085 0.022571657 -0.012451599 -0.009388331 0.0011984189 -0.008237531 -0.006863409 -0.012892103 -0.029979048 -0.018705225 0.0053999196 0.048131004 0.079984285 0.038934756 -0.025120644 0.06337042 -0.015273185 0.06153943 0.0011478761 -0.08396728 0.0144404 0.030188477 -0.04318627 0.018375233 0.046050645 -0.014281546 0.00027515428 -0.013127923 0.0149586825 0.062042754 0.07994585 0.056601375 -0.050123293 -0.041292638 -0.020047152 -0.10630702 -0.021663405 -0.011117358 0.048305947 -0.02572112 -0.018390074 0.057398353 -0.025559492 -0.010041944 0.015268622 -0.0020301237 0.010912389 0.016052587 -0.0037270717 -0.04335194 0.015853044 -0.020056797 -0.0019242172 0.012631203 -0.016176207 0.0011777345 0.06715855 0.028683683 -0.05550914 0.033711158 -0.036762454 0.03294625 0.025689848 0.04705609 0.03169188 -0.0051332735 0.05237283 -0.0011693075 -0.0004292642 0.0020366032 0.0009918042 -0.051321782 -0.060038235 -0.0063023325 -0.02790426 -0.029029885 -0.07599693 0.022081451 0.014859042 0.008647903 0.03464101 0.0023360318 -0.024764286 -0.0082902 -0.009997443 -0.010539153 0.032864362 0.025603121
HP:0012735 0.03671907 0.035235934 -0.08552951 0.055947583 -0.039428044 0.018173333 0.008800307 0.0054237973 -0.0063131917 -0.004312139 0.05537586 -0.045949735 0.049499527 -0.02431611 0.03958806 -0.02650096 0.037860658 -0.049613934 -0.06060976 0.042595267 0.007811418 0.05917692 0.07552253 -0.02667353 -0.013074425 -0.09274458 0.05486371 -0.05377165 -0.09652288 -0.02911771 -0.018148284 0.06415133 0.044495054 0.014495421 0.022538537 -0.054641776 0.05028862 0.023523554 -0.057712782 0.0053969487 0.014433415 0.03291509 -0.01579074 -0.011869779 -0.00085458934 -0.002687614 -0.0055907196 -0.018370114 -0.03783262 -0.019846154 0.004443229 0.061721742 0.096675016 0.04335885 -0.036132023 0.07894781 -0.022801641 0.07084642 0.003554052 -0.111537375 0.017108914 0.037347075 -0.053933553 0.019573744 0.059821945 -0.014705262 0.0036621005 -0.019125195 0.020056328 0.07389331 0.097577214 0.06728995 -0.058685217 -0.047790393 -0.023014681 -0.13960034 -0.025442319 -0.014623881 0.06340126 -0.03667883 -0.025970582 0.0701408 -0.027520876 -0.014512106 0.018833231 -0.0042650024 0.019652557 0.0231132 -0.005171116 -0.04887654 0.018522954 -0.025909996 0.0031483434 0.01991164 -0.014106655 0.0014148513 0.08097563 0.035429545 -0.070879444 0.041106157 -0.05054089 0.041452356 0.03222229 0.059941377 0.039511815 -0.00836649 0.06546704 -0.003021762 -0.0038777057 0.000493756 -0.0014627752 -0.062034525 -0.07751032 -0.003894958 -0.03632672 -0.035380654 -0.08794549 0.024688574 0.020254033 0.012377855 0.044835154 0.00045878554 -0.030280916 -0.0071581695 -0.012421192 -0.012767125 0.036252227 0.036045767
HP:0001251 0.03653998 0.03904325 -0.10635531 0.0695401 -0.05058913 0.020341065 0.015670495 0.003340086 -0.0032486261 0.0006546133 0.06972476 -0.056951646 0.054155987 -0.029437523 0.04412943 -0.030161541 0.045697495 -0.059987094 -0.077123106 0.04909369 0.01596665 0.07292406 0.087393865 -0.03751164 -0.01782669 -0.11647854 0.070053264 -0.05720725 -0.11435203 -0.03908425 -0.014491718 0.075879484 0.05656668 0.020399878 0.02155662 -0.06777302 0.060034756 0.030085977 -0.07392883 0.008984335 0.021415941 0.039084062 -0.014450862 -0.0115598645 -0.00030455197 -0.010891971 -0.0057036215 -0.017252069 -0.048979353 -0.029103458 0.006223053 0.0708428 0.12210825 0.057559017 -0.04325834 0.097981706 -0.030177815 0.08694634 -0.0012471228 -0.13398202 0.020496342 0.044872425 -0.05764344 0.029320482 0.07004173 -0.022050815 0.0027934976 -0.021383867 0.021223838 0.088922 0.11858456 0.08695422 -0.066686444 -0.05846466 -0.02815975 -0.16348189 -0.028333185 -0.013163304 0.07485913 -0.04263188 -0.030307157 0.08729195 -0.03449845 -0.017263826 0.022912294 -0.004473271 0.017281603 0.02671058 -0.0016382711 -0.060044754 0.01980296 -0.026867615 -0.001566818 0.025391808 -0.0189129 -0.0026159605 0.10372445 0.046072826 -0.09085119 0.048193727 -0.054014433 0.049494106 0.0410442 0.06923681 0.0500685 -0.0057498547 0.07620643 -0.005426544 -0.0036557883 -0.002826219 -0.0035337682 -0.08304845 -0.09718119 -0.006454267 -0.043337274 -0.042593196 -0.11124293 0.036592707 0.022536313 0.017555058 0.054714665 0.0019430737 -0.039051384 -0.009482314 -0.012870811 -0.019233393 0.04234925 0.042788863
HP:0001882 0.03244566 0.033042487 -0.07769626 0.051076397 -0.035134397 0.012600663 0.005382014 0.002925605 -0.0075887023 -0.0052710455 0.049225107 -0.04300817 0.040069014 -0.019304143 0.033518706 -0.0216532 0.03955209 -0.039335296 -0.056934018 0.034035202 0.013058287 0.049628135 0.06733229 -0.026523482 -0.010781318 -0.0888706 0.054075893 -0.048494555 -0.087701485 -0.025007686 -0.0104827965 0.058288313 0.039231516 0.012841582 0.020398615 -0.054146975 0.045987032 0.018127674 -0.05311387 0.008135316 0.018382521 0.023853749 -0.010781645 -0.010145757 -2.1320298e-05 -0.0075329435 -0.00069500774 -0.013359891 -0.034408428 -0.01607408 0.0017601508 0.054757576 0.09066105 0.037190855 -0.03483002 0.07209542 -0.021121945 0.06479826 -0.0013635289 -0.09630556 0.016228754 0.031636942 -0.04289639 0.017786223 0.056943867 -0.010132547 -0.0002099188 -0.020160012 0.01608763 0.06427013 0.09320759 0.06375645 -0.05116559 -0.04792069 -0.02495864 -0.12030331 -0.02306676 -0.011855859 0.057086788 -0.032569252 -0.021589264 0.066107 -0.030064307 -0.017790228 0.011427098 -0.00574491 0.016398866 0.019939099 -0.004747004 -0.043993972 0.013793786 -0.021097058 0.0006974911 0.018205123 -0.018302806 0.0011789056 0.07939612 0.03257654 -0.062086742 0.04120035 -0.041697953 0.03882963 0.03205743 0.05495046 0.03680165 -0.00790998 0.057706207 -0.003653794 -0.0028539258 0.00011980159 -0.0039185127 -0.0637012 -0.07492373 0.0014676097 -0.036884464 -0.035850026 -0.07995394 0.027410489 0.014090659 0.009231721 0.045801565 -0.003137845 -0.026411243 -0.0030000682 -0.009265058 -0.011165284 0.031262342 0.028774288
HP:0001644 0.036244262 0.034947447 -0.09227273 0.05666849 -0.044010375 0.016842416 0.009826098 0.0052038757 -0.0031944234 -0.003834991 0.06323934 -0.055011574 0.051584076 -0.02566778 0.043688376 -0.03044717 0.04279517 -0.053241782 -0.07114963 0.042582106 0.012278941 0.066951625 0.075045496 -0.027718954 -0.012192528 -0.10333248 0.06242286 -0.055756755 -0.10295959 -0.0325083 -0.013643747 0.06355087 0.045576636 0.014210309 0.02175628 -0.06417481 0.056268044 0.024008224 -0.066058196 0.009798054 0.01615921 0.032933433 -0.015023225 -0.0151604675 -0.0036472986 -0.0024621293 -0.008375986 -0.01599063 -0.044209212 -0.019473 0.0039755264 0.065884575 0.103549786 0.050684057 -0.036931146 0.088848606 -0.024498273 0.076574355 0.0005577311 -0.11939284 0.016534775 0.0378381 -0.053436913 0.02644823 0.06330114 -0.017369682 0.0018594728 -0.019039206 0.019288197 0.081652634 0.103148356 0.07563693 -0.06577998 -0.05296459 -0.023540292 -0.14379577 -0.026698101 -0.010893871 0.06392996 -0.038173255 -0.029319089 0.07715423 -0.02927241 -0.015088066 0.01385983 -0.002605133 0.014295611 0.018854428 -0.0069514974 -0.05241028 0.019512866 -0.023338003 -0.0007192592 0.019778855 -0.020424807 0.0016003897 0.09232844 0.04086992 -0.07679246 0.046063356 -0.0521013 0.04424365 0.036415078 0.06706887 0.04179503 -0.010981711 0.06617102 -0.005254036 -6.898776e-05 -0.0044187694 -0.001663968 -0.07240093 -0.080751345 -0.0030333863 -0.041940592 -0.037211798 -0.09857624 0.026998896 0.015886795 0.011759694 0.05242196 0.0012048616 -0.031212106 -0.0066318503 -0.010186435 -0.01254414 0.04137748 0.035182156
HP:0000490 0.030789012 0.029804965 -0.07865701 0.05213259 -0.037325636 0.015674956 0.01063046 0.0034629258 -0.0046484163 -0.005184959 0.054063357 -0.047523327 0.04652905 -0.021682173 0.035602916 -0.022637015 0.03731656 -0.042878903 -0.06419634 0.038294956 0.012837444 0.059000745 0.07036322 -0.024564667 -0.0122518875 -0.08813927 0.05527717 -0.047422215 -0.095850326 -0.027045947 -0.01260375 0.05661276 0.04603602 0.012853717 0.018033143 -0.052640464 0.051533367 0.02408843 -0.054394558 0.0067109084 0.014980182 0.03205978 -0.009992151 -0.012822251 0.002168406 -0.0066333814 -0.007485511 -0.016981978 -0.038943756 -0.022599502 0.004591647 0.058222156 0.09704391 0.04065742 -0.03161141 0.07519944 -0.023861539 0.0711005 -0.0004051012 -0.10222649 0.018915752 0.038022976 -0.05251409 0.024682919 0.057562154 -0.018056339 0.0021562767 -0.02118936 0.020943291 0.06937687 0.09591899 0.0679431 -0.055722162 -0.052506153 -0.02085273 -0.13520314 -0.024984013 -0.012774386 0.06194962 -0.034543708 -0.027649606 0.07310398 -0.027697135 -0.011703477 0.012391246 -0.005612838 0.012757372 0.017878462 0.00015417405 -0.051358912 0.018993806 -0.022632528 0.00013129204 0.01890832 -0.013245995 -0.0038791632 0.08428533 0.036725536 -0.07173365 0.039116085 -0.044536434 0.04089457 0.029165953 0.05301765 0.038342234 -0.0075126407 0.061471477 -0.0035048723 -0.004031296 -0.0019788533 -0.0016811953 -0.06730034 -0.08007053 -0.0044809654 -0.037152115 -0.0344613 -0.088159315 0.027113121 0.017610112 0.011268656 0.044567987 0.00090164586 -0.03022799 -0.007135976 -0.010720641 -0.01375319 0.036654435 0.03652944
HP:0100749 0.021054083 0.020371715 -0.056177024 0.03874778 -0.028606184 0.012014109 0.0037188174 0.0020070735 -0.0022244274 -0.00096912705 0.037437342 -0.029779326 0.03263042 -0.013426433 0.023303598 -0.019174287 0.02926159 -0.032965094 -0.04464757 0.02802831 0.009296425 0.04065157 0.04720575 -0.0159983 -0.010613692 -0.05886317 0.042486407 -0.033410244 -0.06741672 -0.017643446 -0.008840524 0.03706217 0.029760344 0.010173989 0.012446385 -0.03702062 0.031602684 0.019560223 -0.04273038 -0.00017428069 0.0077364636 0.022430114 -0.0065524736 -0.010390755 -0.0038612182 -0.0007982523 -0.0021118803 -0.013752186 -0.021989776 -0.016483236 0.0029423689 0.043743946 0.06825156 0.03133076 -0.021417916 0.050831586 -0.0137559995 0.04659012 -0.0002478458 -0.06978886 0.010465093 0.023824086 -0.033093885 0.016863327 0.04244559 -0.006351368 0.000747824 -0.010771692 0.010874354 0.04735657 0.068678916 0.04954193 -0.039568465 -0.0343815 -0.01604171 -0.09323574 -0.012989295 -0.00918898 0.03887543 -0.022773113 -0.016179293 0.049380977 -0.018749518 -0.007565787 0.00846484 0.0006153102 0.007364697 0.015349624 -0.0057189907 -0.031353336 0.013607031 -0.018278822 0.002865905 0.014479261 -0.008459977 -9.6191725e-05 0.055054538 0.021642506 -0.047451768 0.02353613 -0.032176316 0.02576473 0.018826827 0.039283454 0.023331271 -0.004513653 0.04411562 -0.0023957246 0.0021450163 -0.0012699184 -0.0015208618 -0.04538055 -0.053766742 -0.0053391866 -0.025424443 -0.022743378 -0.05756482 0.015170421 0.009098777 0.0073249 0.02796344 -0.0016456819 -0.020857038 -0.0046697333 -0.0061786566 -0.006027051 0.028957209 0.024483673
